nep4 6 Cu C Cr Mo Ti W 
cutoff 6 4 163 49
n_max 8 8
basis_size 10 10
l_max 4 2 0
ANN 50 0
 -1.7928189e-01
  2.5118496e+00
 -6.7849112e-01
  1.7479637e+00
  6.4821285e-01
  1.1115882e+00
 -1.1911638e+00
 -2.6577163e+00
 -5.3492117e-01
 -3.1039486e-02
  7.2169378e-02
  4.4926796e-02
 -2.6697991e-02
  1.5290532e-01
 -2.1274604e-01
  4.6944335e-02
  6.1433569e-02
  4.1533280e-02
 -3.7157169e-01
 -9.9529135e-01
 -8.0986184e-01
  2.0664088e-02
 -1.1760682e-01
 -4.7540303e-02
 -3.4540937e+00
  1.2032689e-01
  1.3251565e+00
  6.1043847e-02
 -1.9342088e+00
 -5.6742872e-03
  7.2853535e-01
 -5.2159984e-02
 -4.5205563e-01
  1.2477839e-03
 -4.0296736e-01
 -1.7980635e-01
 -5.0219703e-02
 -3.9772041e-02
 -1.7147455e-01
 -6.0087788e-01
  1.1140833e-02
  7.8363279e-03
  1.4257401e-02
 -8.4337518e-02
  5.8636840e-02
  2.5202191e-01
 -1.1806570e-02
 -6.5344565e-02
  3.7910771e-02
  5.8533559e-03
  1.4882813e-02
  1.1058989e-01
 -5.0781563e-02
 -7.4843587e-03
 -8.1948769e-01
  2.2246549e+00
  2.5246115e-02
 -1.0111792e+00
 -6.0960758e-02
 -7.5136706e-02
  6.4573956e-01
  3.9727755e-02
 -4.1504362e-01
 -7.9202527e-01
  1.1051841e-02
  6.7153744e-02
 -8.8492095e-02
 -2.8241392e-02
 -2.5498352e-03
  8.0063172e-02
 -2.4129372e-02
 -2.4626184e-02
 -7.9430073e-02
  3.2259874e-02
 -2.3096927e-02
 -6.6326298e-02
  2.6523424e-02
 -1.1866155e-01
  8.8903558e-01
 -3.9613299e-02
  1.0308864e-01
 -4.4673722e-02
  2.6864773e-03
 -4.1162547e-02
  7.7507012e-02
  2.4833536e-02
 -1.9828180e-02
 -1.1161350e-01
 -2.2883849e-02
 -9.8658465e-02
  3.5185359e-02
 -1.8415067e-02
  4.3103386e-02
  3.2555219e-03
 -9.8973200e-02
 -1.6241197e-02
  5.2097160e-02
 -6.8150656e-03
 -8.2161818e-03
 -7.4219304e-01
 -1.1204358e-01
 -4.0606335e-02
  1.4511655e-01
  4.5702726e-02
 -4.2950921e-02
  1.0653997e-03
  6.9775637e-03
  3.5598807e-03
  3.5016602e-01
  6.0868806e-01
  1.7679760e-01
 -6.5546769e-01
 -8.7543172e-01
 -9.4134229e-01
 -6.9189048e-01
 -6.3450074e-01
  5.7108825e-01
  1.6197288e-02
 -1.6975328e-02
 -2.1956133e-02
 -6.8916745e-02
  8.2648881e-02
  1.2462566e-01
 -4.2744558e-02
 -4.6466649e-02
 -6.0897255e-01
 -1.3107498e-03
 -3.2717824e-02
  6.7422807e-02
  4.1375529e-02
 -1.2433618e-01
  1.5725333e-02
  2.6491959e-02
 -7.4270241e-02
 -1.2377709e-01
  3.4738830e-01
 -1.0489640e-02
  6.6481429e-01
  9.2891734e-03
 -2.4342642e+00
 -2.8374907e-02
 -7.2047062e-02
  3.1419557e-02
  3.3344436e+00
 -7.3360449e-01
  1.3476621e-01
  1.5650038e-01
  1.4906980e-01
 -5.0873283e-02
 -1.6480645e-02
 -8.8999882e-02
 -3.0213876e-02
  1.3419959e-01
 -3.6768045e-02
  5.8319890e-03
 -4.0554270e-02
  3.7790474e-02
  1.4672969e-02
 -2.4129011e-02
 -3.1337336e-02
 -1.6544314e-02
 -1.0900209e-02
  1.2488821e-02
 -8.9258182e-01
  1.7612102e+00
 -2.7147694e+00
 -6.8708040e-02
 -1.6423646e+00
 -1.2483888e+00
  7.8823447e-01
 -1.0227796e+00
  2.6756945e-01
  2.1660794e-01
 -1.2276188e-01
  1.1950683e-01
  4.5383453e-02
 -2.2355564e-01
 -3.2258416e-03
 -2.1807775e-02
  8.4392987e-02
  1.4736295e+00
 -6.6137299e-02
 -4.4417232e-02
  5.1601440e-02
  1.7250383e-01
  1.1468267e-02
  6.5293815e-03
 -2.0037612e-02
 -6.0521436e-01
 -7.5943315e-01
 -3.6996722e-02
 -1.1859743e-01
  9.9878637e-03
  1.4453062e-02
  8.5186444e-02
 -6.2525943e-03
  1.9766783e-02
 -5.1496625e-02
  1.7375839e-03
 -5.6918021e-02
 -1.4409034e-01
 -4.3005836e-03
 -9.4181416e-04
  2.8041406e-02
  5.8108758e-02
  5.3996574e-02
  4.0602997e-02
  9.1566592e-02
  2.7265828e-02
 -6.3604392e-02
 -7.8897126e-02
 -5.2598216e-02
 -7.6610047e-01
 -1.9475920e-01
  4.9933944e-02
 -4.4616021e-02
 -1.5491595e+00
 -2.9056865e-01
 -2.2170370e-02
 -6.8503030e-02
 -5.8335143e-01
  1.2043562e+00
  2.9382471e-02
  1.2380790e+00
 -4.7909573e-01
 -5.8089596e-01
 -9.8743135e-01
  3.0994271e-03
 -1.3076007e+00
  2.6570037e-01
 -6.6051251e-01
  7.9859394e-01
  3.1537846e-02
  9.3009591e-02
 -3.8020027e-01
  7.0582771e-01
 -1.8879033e+00
  1.8936986e-03
 -2.1900740e+00
 -8.6484003e-01
  2.7313558e-02
  1.4542109e+00
  9.8046619e-01
  1.7434591e-01
  2.4741635e+00
 -6.0563821e-01
 -6.7090355e-03
 -1.9335762e-02
 -3.8997647e-01
  9.5592469e-02
  1.9803412e-02
  6.0500589e-04
  1.5275246e-02
  7.1980819e-02
 -4.4629759e-01
 -3.1416204e-02
  5.4127669e-01
  5.0667888e-01
 -7.4432679e-02
 -4.2150182e-01
  4.7786590e-01
  2.7553366e-02
 -7.4555360e-02
 -1.3224439e-01
  1.7087258e-02
 -4.6732560e-02
 -2.6239330e-01
  3.4601100e-02
  9.0373382e-02
  4.2120073e-02
  1.9825771e-02
 -1.2813629e-02
 -2.3836099e-02
 -3.8230844e-02
 -2.3711732e-02
  1.1668389e-02
 -2.1477921e-01
  1.1310968e-01
  6.1655294e-02
 -1.2213994e-02
 -1.4569375e-01
 -1.5486482e-01
 -4.4620383e-01
 -7.8053460e-03
 -1.4794268e-01
 -9.6076662e-03
 -1.6994722e-02
 -4.0317960e-03
  8.9093456e-03
  3.0393563e-03
  2.2821522e+00
 -8.4620658e-03
  1.3986271e-02
 -1.3184444e-02
  1.2168780e-02
 -4.6446381e-05
 -4.1290394e-05
 -2.2749501e-01
  3.1660646e-02
 -3.3895667e-03
  2.0622587e-01
  1.2956481e-01
 -5.4734029e-02
 -6.6550933e-02
  9.3666279e-01
  4.3565568e-01
 -7.5131436e-03
  5.8286661e-01
  1.5978221e-02
  1.2192508e-01
 -4.0244229e-02
 -9.5754974e-02
  8.4397644e-02
 -3.0089024e-02
  1.5953556e-01
  2.7711427e-02
 -2.9959615e-02
 -4.0295999e-02
  1.9234829e-02
  1.8062355e-02
  3.6739469e-02
 -2.3279488e-02
  6.0312927e-02
  2.0463670e-02
 -3.5135511e-01
 -6.1395872e-01
 -1.7466962e+00
 -6.7838210e-01
  1.5138824e+00
  1.6122053e+00
 -4.1327658e+00
 -7.8038681e-01
 -1.0316533e+00
 -3.1809616e-01
 -1.1641273e-01
 -6.8960311e-03
  8.0351137e-02
  4.9373051e-03
  2.6811817e-01
  2.2568740e-01
  3.8799845e-02
 -1.2573081e-02
 -4.6690129e-02
  8.1862077e-02
  1.4503069e-01
  5.6227043e-02
 -3.0136844e-02
  4.5520768e-01
  5.1664852e-02
 -1.8504057e-02
  6.3278586e-02
  1.1814018e-02
  1.4376660e-01
 -5.2558050e-02
  9.2595108e-02
  1.0768530e-01
 -5.1405005e-02
  4.6042972e-03
  3.6948420e-02
  1.4213899e-01
 -3.9172798e-02
  3.6784288e-02
  1.7831147e-02
  1.5319762e-01
 -9.0383768e-02
 -9.1821156e-02
 -7.9438411e-02
 -2.3079221e-03
  3.4124993e-02
  1.1851769e-01
  1.1991471e-01
  5.6139659e-03
  3.3010473e+00
 -2.7093567e-02
 -2.9907268e-02
  8.1368005e-03
 -3.3815398e-03
  2.9040144e-03
 -2.4732478e-02
 -4.1528690e-01
 -3.7607334e+00
 -1.1322027e+00
 -1.7582669e+00
  3.7266776e-01
  6.7960089e-01
 -9.7485816e-01
 -1.0561468e-01
 -1.0754392e-01
 -3.4451573e-03
  4.6305157e-02
 -1.7847183e+00
  9.0084606e-01
 -1.2201549e-02
 -3.0035266e-01
 -2.4472672e-01
  2.0135678e-02
  1.8079467e-01
  1.2815270e-01
  1.6899643e-02
  6.5509975e-02
  3.2879852e-02
  1.0056625e-01
 -1.1597090e-01
 -7.4014217e-02
 -3.8836356e-02
  4.7542445e-02
 -3.9233439e-02
  2.6883511e-02
 -7.4469678e-02
  4.3876894e-02
 -3.0845717e-02
  1.8621443e-02
  1.2172005e-02
  1.1860539e-02
 -1.0307069e-02
 -2.2379817e-02
 -3.2091135e-01
 -1.7209472e-02
  3.4962881e-02
 -2.6863050e-02
 -3.3438713e-03
  3.7282005e-02
  6.2550910e-02
  5.6679517e-02
 -1.2375026e-02
  4.4653964e-01
 -5.9919143e-01
  1.4412883e-01
  5.2722115e-03
  7.4356631e-03
 -2.5405765e-01
  1.7761083e-02
  9.6623562e-02
 -2.7522227e-01
 -6.3411698e-02
  1.7133092e+00
  3.7383150e-02
  4.2270422e-01
 -7.8132790e-01
 -1.8411992e+00
 -1.5956445e+00
  4.2878579e-02
  1.5338522e-02
  1.4442174e-01
 -5.7192419e-02
 -1.5210319e-01
  2.0387569e-01
  3.7147303e+00
 -6.0777191e-02
  2.7654700e-02
 -1.8615190e-02
  1.3923597e-01
 -1.2274983e-01
  1.1670826e-01
  3.0693766e-02
 -1.1285744e-01
  1.6566403e-01
 -6.5926567e-02
  1.1889156e-01
 -1.9908851e-02
  6.0936324e-02
 -1.2806941e-02
  1.4952759e-01
  8.7553635e-03
 -1.0203916e+00
 -4.8019797e-02
  9.8359443e-02
 -7.6325417e-02
 -1.2219805e-01
  2.0607255e-02
  5.0147098e-01
 -2.7077052e-01
 -3.8097908e-03
 -2.1083185e-02
  4.1932341e-02
  8.6122137e-03
 -6.2444201e-03
 -8.8685840e-01
 -1.5338787e-01
  4.8547752e-02
  2.4727941e-02
 -5.9134122e-02
  1.0626036e-02
  5.1239226e-02
 -2.3793424e-02
 -1.9218672e-02
  5.6912863e-01
 -6.2081957e-01
  5.6261367e-01
 -2.8173955e-02
 -7.3105104e-02
  3.4918308e-01
  3.0544728e-01
 -2.1626927e-01
  2.7217165e-01
  6.5119416e-01
  4.1365068e-02
  1.3114916e-01
 -6.0926289e-03
 -9.6895002e-02
  2.6985488e-03
 -1.9585604e-02
  1.3848756e-02
  1.5994315e-01
 -1.4223461e-01
  7.4046624e-01
  1.1024474e-01
  3.8357418e-02
 -5.0007138e-02
  1.1491324e-02
 -9.0267330e-02
  1.9007966e-02
 -7.1720965e-02
 -2.5973337e-02
  7.2274981e-03
  1.5294130e-02
  3.9256066e-02
  2.6829727e+00
 -5.1079905e-01
  1.2324689e-03
 -9.9516436e-02
  1.3162117e-01
  1.6045772e-02
 -2.0269213e-02
 -2.0761605e-02
  2.5244303e-02
  1.7092463e-02
 -4.2683534e-02
 -1.2784269e-01
  3.5365973e-02
  1.7841838e-03
  1.6382826e-02
 -1.0651554e-01
  1.2715291e-02
 -6.1973166e-03
  6.8952241e-03
 -1.1558302e-02
 -7.4937334e-03
  2.2193003e-02
 -9.6818022e-02
  2.9946500e-02
 -1.3128754e+00
  1.2575222e+00
 -1.9706410e+00
 -1.3513253e-02
 -1.0183699e-01
 -4.7229398e-02
 -5.9094053e-02
  2.8337884e-01
 -9.5991030e-02
 -5.0095674e-02
 -2.0848873e-01
  4.5769988e-03
  8.3032083e-03
 -7.0551932e-02
 -1.5229237e-02
 -4.1696066e-03
 -4.7036338e-01
  1.1453415e-01
 -1.5289600e-01
 -1.3427353e+00
 -1.1261039e-02
 -1.6573885e-02
  9.3784519e-03
  2.9485587e-02
  1.2106946e-01
 -1.0841474e-01
  3.8710628e-02
 -6.3933700e-02
  8.3625544e-04
 -5.1983159e-02
 -4.9837610e-01
  3.6093923e-03
  7.1034551e-02
 -8.1465982e-02
 -1.2371896e-01
 -4.2310320e-02
  1.2925273e-01
  9.3317876e-04
  3.6054160e-03
 -2.7882127e-02
  1.5352141e-02
 -1.4703935e-01
 -2.4023594e-03
  2.8369009e-02
  5.4563743e-01
 -9.9337988e-02
  1.6655867e-01
 -1.3715756e-01
 -8.8370606e-02
  6.5795101e-02
 -5.3270453e-01
 -9.3685322e-02
 -1.9005116e-02
  1.2517185e+00
  3.2610989e-01
 -1.9529996e+00
  1.2333287e+00
 -1.1339214e-02
  2.3120072e+00
 -2.4117084e-01
  1.2382439e+00
  9.5039469e-01
 -3.9570507e-01
  9.9539047e-01
 -2.8270125e-01
 -1.1764189e+00
  2.2297723e+00
 -3.9103806e-01
  3.6302376e-01
 -2.0125656e+00
 -8.5666817e-01
  7.3897940e-01
 -5.5756426e-01
  1.2274261e+00
 -1.1286375e-01
  1.4685836e+00
  2.2078562e+00
 -5.7455945e-01
 -9.1487950e-01
  2.2155701e-01
  2.1005518e+00
  9.5089972e-02
 -3.3562633e-01
  2.3298328e-01
 -5.7869029e-01
 -5.8880055e-01
 -1.1210806e+00
 -7.2878802e-01
 -1.3656524e+00
 -3.6784649e-01
 -8.5453200e-01
  9.5773119e-01
  7.1066546e-01
  4.4638470e-02
 -1.8014636e+00
  9.9090260e-01
 -5.0960493e-01
  5.9669107e-01
  2.1679649e-01
 -5.2363527e-01
 -1.6934498e-01
 -8.4924825e-02
 -9.1728769e-02
 -6.3610159e-02
  2.1204552e-02
  7.2588980e-01
 -2.7431467e-01
  4.5531485e-02
  1.6831708e-03
  6.0455389e-02
  2.6119964e-02
  8.2715042e-03
 -1.2177167e-01
 -1.2427850e-01
 -1.6087865e-02
  8.9267051e-01
 -9.6828409e-02
 -1.0190661e-01
 -4.7037501e-02
  1.7764790e-01
  8.9463547e-02
  2.4182763e-02
 -7.8097865e-02
 -1.8607600e-02
  1.2824731e-02
  8.1582807e-02
 -2.1269461e-02
 -4.0307981e-03
  5.3318655e-01
 -1.0080359e-01
 -7.5273216e-02
 -3.3874992e-02
 -2.3035424e-02
  4.9239047e-02
  1.9315634e-02
  3.1314280e-03
 -1.0071067e+00
 -9.7545907e-02
 -9.2910178e-02
 -4.7416855e-02
 -6.9897495e-02
 -2.7928399e-03
  4.3262984e-03
  7.5409301e-02
 -2.4987145e-01
  5.8883011e-02
 -1.4853135e-01
 -3.3373948e-02
  2.5517449e-02
 -1.1091565e-01
 -8.3744116e-02
 -1.1206166e-01
 -1.8745773e-02
 -1.6980410e-02
  2.6234275e-02
  2.7959563e-02
 -3.3395872e-02
 -5.2338672e-01
  9.9673577e-02
 -4.4461377e-02
 -1.0233015e-01
  3.3400416e-01
  6.7998421e-01
 -4.0190032e-01
 -2.4712832e-01
  1.4604575e-02
 -1.7904876e-01
  2.2887038e-01
 -4.6806896e-01
 -1.3096514e+00
  5.3334883e-03
 -6.7606896e-02
  6.8721008e-01
  1.3025506e-01
  3.7249237e-01
  3.4484801e-01
 -2.2882792e-01
 -5.1096696e-02
  1.6531466e-01
  6.0990345e-01
  1.6626844e-01
  1.9824195e-01
 -2.0604601e+00
  1.3549554e-01
  1.0183886e+00
  8.7547101e-02
  2.5520006e-02
 -1.9906212e-01
  9.7404015e-01
 -1.2992561e-01
 -9.2170179e-02
 -1.3607786e-02
  1.0619562e-01
  8.6890645e-02
 -1.9246561e-02
  1.0869424e+00
  3.2213936e-03
  1.0428715e-02
  2.9649762e-02
 -4.9451089e-01
 -3.5922672e-03
 -1.2067167e+00
  1.7641108e-02
 -5.7218790e-02
 -2.4573402e+00
  2.7340566e-04
  5.6823809e-03
  7.0210688e-02
  1.3001104e-01
 -4.0321667e-02
  1.0551941e-01
  3.6950402e-02
  4.2924996e-02
 -7.7623859e-02
  1.2202028e-01
 -4.6455535e-01
  9.7956234e-01
 -1.4964274e+00
 -1.7103536e+00
  6.9892764e-01
 -3.5316935e-01
 -1.9017372e-01
  5.2493072e-01
  8.2117051e-01
  5.7823455e-01
 -2.9572698e-01
  7.4094754e-01
  1.0828798e-01
  9.6931112e-01
 -3.2839498e-01
  8.8185841e-01
 -1.3450184e-01
  1.5465479e-01
  2.0435815e+00
 -1.1226746e-03
  3.9589483e-02
  2.9867499e+00
 -2.4504071e-01
 -3.9998230e-01
 -1.7701401e+00
 -7.0569329e-02
 -7.9971683e-01
  3.2096806e-01
  7.9036981e-01
 -1.1218441e-01
 -1.0050002e-02
  8.3577111e-02
 -3.5449229e-02
 -9.8634863e-01
  2.3025011e-01
 -3.2987082e-01
  1.6447397e+00
 -3.7797520e-01
 -1.7905889e-01
 -2.1661541e-01
  7.5019680e-02
 -2.6674049e+00
 -2.0777249e-01
 -3.0028164e-02
  5.3570460e-04
  4.9306032e-01
  9.7954273e-02
  5.6460232e-01
  1.3546261e-01
  1.7677696e-01
 -4.7411022e-01
 -2.1363430e-01
  1.7849511e+00
 -8.0108196e-02
 -2.3103317e-02
 -2.5613749e-01
  1.5598478e+00
  1.5237427e+00
  5.3594285e-01
 -2.3202948e-01
  2.2228413e+00
 -2.6144738e+00
 -3.1708294e-01
  6.9826499e-02
  2.5071112e-02
  1.7116918e-03
 -1.7440969e-02
 -1.8329053e-01
  4.2606322e-03
  1.1207973e-02
  1.6726190e-01
 -2.4200428e-02
  9.1221440e-04
 -3.3864189e-02
 -2.2035742e-03
  2.0899814e-02
  1.2266778e-01
  4.4529226e-02
 -1.3161688e+00
  6.8028648e-03
  4.1145172e-02
 -5.0994061e-02
  7.0376895e-02
 -3.1332321e-02
 -3.4801971e-02
  5.9336433e-03
 -1.4845408e-02
 -4.1639000e-02
  3.2045394e-02
 -1.1548270e-02
  3.6310840e-02
 -6.1059427e-02
  3.0917809e-03
 -3.2148778e-02
  4.2421699e-02
  2.9511407e-01
  1.3918450e-01
  1.5795732e-02
  9.7288918e-01
  1.0258348e-01
  4.6289746e-02
  1.2984462e-02
 -2.5884880e-02
  8.1097044e-02
 -3.6264807e-02
  1.8240910e-02
  1.1551390e-02
  1.2710229e-01
 -3.6029577e+00
  9.4178605e-01
  5.2585435e-01
  9.7081196e-01
 -1.5426713e+00
 -1.2876859e+00
  1.1033911e-01
  1.2732518e+00
  1.2537972e+00
  8.2392800e-01
  1.2035772e+00
  1.8771508e+00
 -4.0330846e-02
 -2.9709759e+00
  1.1852336e+00
  2.5097787e-01
  3.3879367e-01
  1.8898259e-01
 -3.9341554e-01
  5.7346922e-01
  4.7815501e-04
  1.5761948e-01
  1.2692596e+00
 -2.3053830e+00
  6.8668729e-01
 -2.5215241e-01
 -1.2285283e+00
 -1.3502292e-01
  3.8619348e-01
  1.4393579e-02
 -1.1582196e+00
 -2.6452962e-01
 -8.7003727e-03
  6.5970659e-01
 -6.4694375e-02
 -1.3274767e-01
 -8.2750428e-01
  1.6939909e+00
 -1.6857162e-01
  5.1348507e-01
 -2.8026333e-01
 -2.6171136e-01
  7.8579178e-03
 -4.3440703e-01
  1.0954724e-01
  7.7280092e-01
  8.5071018e-03
 -8.1045754e-02
 -1.8139917e+00
 -1.6897580e-01
  1.2852108e-01
  1.9145556e-02
  2.5184494e-01
 -9.3131721e-02
  8.2211024e-01
 -1.1366479e+00
  9.3125671e-01
 -2.0167279e+00
  1.7677662e+00
 -2.5169170e+00
  8.6247601e-02
  1.7695192e+00
  5.5248606e-01
 -6.7795198e-03
  1.9967964e-02
  1.4969687e-03
  4.7416277e-03
 -2.0409077e-01
 -9.2829159e-03
 -5.6118405e-01
 -8.5833646e-02
 -5.9377258e-03
  6.3425207e-01
 -3.8057748e-02
  3.2481413e-02
  2.7261984e-01
  2.8801776e-04
  2.4908324e-04
 -6.1378431e-01
  4.0292006e-02
 -1.8830322e-01
  3.6039062e-02
  1.3131364e-02
  7.7822335e-02
  5.8706854e-03
 -9.5583433e-03
 -7.7516146e-02
 -1.3261512e-01
  7.4935719e-02
 -3.6819860e-01
 -1.1874660e-01
 -5.7284099e-01
  1.2407041e-01
 -6.1565540e-03
 -3.1309584e-01
 -2.4843656e-02
  5.4669827e-02
  7.8606702e-02
 -9.6461231e-01
  6.9948518e-01
 -4.3056157e-01
  1.1490774e-02
 -3.7080517e-01
 -1.3845587e-01
  1.2723988e-01
 -1.9122181e-02
 -7.1784444e-02
  1.0426330e-01
 -1.0915311e-01
 -5.0521612e-01
 -2.5378621e-01
  1.7109455e-01
  8.4996605e-01
 -8.9971596e-01
  2.7041843e+00
  1.2284789e+00
  1.3661718e+00
 -2.7598178e-01
  2.0564230e-02
  4.1104432e-02
  3.2392108e+00
  3.2889922e+00
 -7.4390478e-02
 -2.8329346e-02
  3.7089322e-02
 -1.4957535e-02
  1.8417032e-01
 -3.9420296e-02
  3.9295027e-01
 -1.5758130e-01
  1.5741017e+00
 -4.1289989e-02
  1.2320768e+00
 -2.3570724e-02
 -2.7214947e-01
 -1.3982828e-01
 -2.2007281e-02
  1.4053947e-01
 -1.2746227e-03
  3.3070181e-02
 -3.4361705e-02
 -8.0821849e-02
  7.1491137e-02
  1.2715688e-01
 -7.7841884e-01
 -3.1492701e-01
 -7.3463125e-03
  7.1607735e-03
  1.7990995e-03
 -4.0279985e-03
 -1.5052449e-02
 -5.0106287e-02
 -8.0025189e-02
 -4.9823888e-02
 -1.5061229e-02
  9.0066931e-04
  3.4136157e-02
  6.8148337e-02
 -1.7797862e+00
 -1.1857193e-02
 -9.2432857e-02
  4.9808007e-02
 -1.0089105e-01
  5.2684005e-02
 -8.5344277e-02
 -2.0473461e+00
  3.5487071e-01
  6.7588827e-03
 -1.6730875e-01
  5.4269308e-01
  3.6696020e-01
  3.1074846e-01
  2.2950642e-02
  1.1464284e-01
 -4.0039774e-02
 -7.7177577e-02
 -1.8534511e-01
  8.7740757e-02
 -8.3897747e-03
  3.3218592e-02
 -3.1956378e-02
 -7.0085302e-02
  4.3403666e-02
 -4.6611100e-02
  3.2940749e-02
  5.6335260e-04
 -4.4784969e-01
 -3.9721942e-03
 -1.5107313e-01
  1.9161498e-02
 -4.2016162e-03
 -1.5805149e-03
  8.3020002e-02
 -4.3519370e-02
  1.0316924e-03
  1.2024531e-02
  5.8608506e-02
  2.1908376e-02
 -2.2781873e-02
 -1.1062804e+00
  4.6903424e-02
  1.1284709e-02
  3.3440077e-01
 -1.1171151e+00
 -4.0667564e-02
 -3.3087835e-02
 -1.6924459e-02
  1.5108784e+00
 -4.3505835e-03
 -6.4968020e-03
 -1.9289358e-03
  2.7405184e-02
 -3.8476393e-04
  5.1493030e-02
 -1.4598059e-02
 -2.2636026e-02
 -4.5743737e-01
  2.4498056e-01
 -1.2027688e-01
 -1.0727597e+00
  1.2544379e+00
 -4.8906800e-01
 -6.2270802e-01
  2.0012221e+00
  2.0925577e+00
 -4.6062368e-01
  2.3248757e-01
 -1.0624890e+00
  3.7608773e-03
  2.7298713e-01
 -1.0517937e+00
 -1.3416470e-03
 -1.4756042e-01
 -6.0757095e-01
  2.9270583e-01
  4.1416854e-02
  7.9681560e-02
  4.7730330e-02
 -2.3011963e+00
  4.5711732e-01
 -6.0095347e-02
 -3.5182565e-01
 -1.2226714e-01
 -4.5152072e-02
 -6.6000782e-03
 -1.1439155e-01
 -1.1883909e-02
  4.6448970e-01
 -2.9239576e+00
 -2.0443645e-01
 -6.1143953e-03
  4.9081850e-03
 -5.2014637e-01
 -1.1409578e+00
 -5.0102311e-01
 -1.3028395e-01
 -8.3293911e-04
  3.5071246e-02
 -6.3818574e-01
  6.7512027e-04
 -3.9596167e-01
  1.1856163e+00
 -2.3004958e-02
  3.6186805e-01
 -5.1020134e-02
 -6.6945165e-02
 -1.2385198e-01
 -4.5869634e-02
 -1.3823705e-02
  5.5081337e-03
 -2.8593490e+00
  2.4995596e+00
  1.5650389e+00
  6.2259233e-01
  1.6899986e+00
  1.7344697e-01
 -2.6981782e-02
  1.9178863e+00
  1.6282177e+00
  7.8579739e-02
  1.4703732e-02
  1.5399960e-01
 -9.2225634e-03
  1.0321707e-02
 -1.1957794e+00
  2.4742479e-02
  1.7991045e-02
  8.3944492e-02
  1.1763477e-01
 -1.4438185e-01
  1.8755298e-02
  5.6517489e-02
  1.0021430e-01
 -9.3675293e-02
 -4.3242080e-03
 -2.1172924e+00
  3.2929435e-02
  2.4255657e-01
  1.1085463e-01
 -4.6805415e-02
 -7.1890295e-02
 -1.9120334e-01
 -6.4102742e-03
 -5.5345971e-02
 -6.1253728e-03
  1.1371111e-02
  5.9863733e-04
 -3.4476284e-02
 -9.5299333e-02
  3.5804283e-02
 -1.0067324e-02
  3.7440546e-02
 -2.7686255e-02
 -6.2810569e-03
  2.9159721e-02
  1.4935590e-02
 -4.8561260e-02
 -3.8720947e-02
  2.4173195e-02
 -4.3052375e-02
 -1.5513657e-02
 -1.5662950e-02
 -1.3593233e-01
 -1.4192637e-02
 -3.2436830e-01
 -2.3019109e+00
 -2.1825438e+00
  1.0066845e-01
  7.9488933e-02
 -1.0459072e-01
  8.5733635e-03
 -3.6190689e-01
 -2.5912908e-01
 -1.4018631e-02
 -3.7355669e-02
 -4.7428820e-02
  5.2013669e+00
  2.9799283e-02
  5.3303204e-02
  8.9022800e-02
 -3.1168332e-02
  6.7393817e-02
 -1.6998161e-01
  8.5703462e-02
  3.7868656e-02
  1.0793696e-02
  5.1424492e-02
  2.3295525e-02
 -1.5115983e+00
 -4.1523725e-02
 -4.0889820e-01
 -7.2902352e-02
  1.3243650e-02
  1.9504175e-01
  4.1954495e-02
  3.2031100e-02
  9.9694133e-02
 -2.0609455e-02
 -2.0327052e-02
  4.8383780e-02
 -7.1231917e-02
 -4.3409742e-02
  3.4531082e-03
  7.2089791e-02
  5.1297404e-02
  1.7243100e-02
  1.2232239e-01
  1.1587768e-01
  1.5355685e-01
 -4.8553716e-02
 -2.3192537e-01
 -3.2078257e-01
 -4.1874815e-02
 -4.2049158e-01
 -9.5535278e-02
 -2.2256771e-02
  6.3402884e-02
  1.3078923e-02
 -2.2956005e-01
 -1.1311586e+00
 -1.2370988e+00
  2.9592749e-01
  6.9997454e-01
  8.2792593e-03
 -3.2424679e+00
 -7.3040777e-01
  1.0969356e+00
 -1.9348730e-01
 -1.5097358e-02
  5.6310803e-01
  1.0474461e-02
  4.1677613e-02
  7.5866222e-01
  3.5339952e-02
  3.8318880e-02
  4.9635086e-02
 -9.6133864e-01
  6.0733631e-02
  5.1177192e-01
 -1.2866333e-01
  1.0955027e-01
 -5.3072676e-02
  2.6682234e-01
  1.4958752e+00
  1.6414635e-01
 -4.0666509e-02
  7.7277780e-02
  7.7511746e-01
 -8.1597477e-02
  4.5602685e-01
  9.7580299e-02
 -3.1801339e-02
 -1.9546714e-01
  8.1810206e-03
  1.0455714e-04
  7.1756236e-02
  1.0306853e+00
 -1.9603737e-02
  1.2204028e+00
 -4.4416014e-02
 -3.4633037e-04
  2.1549862e-02
 -1.6344225e-01
  5.0819423e-02
 -4.9111240e-02
 -8.8034369e-02
  1.9658124e-03
  7.6082237e-03
  1.3109328e-02
  2.1471946e+00
  4.6312634e-02
 -6.7550220e-02
  5.5569005e-01
  3.1553450e-01
  2.9294562e-01
 -1.3083619e+00
 -4.5248610e-01
  1.1761138e-03
  2.1789019e+00
  2.1277697e+00
 -2.0617564e+00
  1.5604313e-01
 -8.9118347e-02
  5.1472161e-02
  1.4276914e-01
  8.0847181e-03
 -1.9151165e-01
 -4.9501516e-02
  4.5812302e-03
 -2.0545768e-02
  2.7843755e-01
 -2.9032191e-02
  5.3515616e-03
 -2.0880534e-01
 -1.3121886e-02
 -2.0727731e-01
  1.2559947e-01
 -2.0382602e-02
 -2.8174385e-02
 -8.2640657e-03
  5.3660139e-02
  1.5754981e-01
  2.6694100e-02
 -4.7779232e-02
 -5.9071247e-02
  6.9371879e-02
  2.7107105e-02
  7.6275103e-02
 -5.6497250e-03
 -7.7499323e-02
  1.9616631e-01
 -9.6223317e-03
  6.0161695e-02
 -6.8495072e-02
 -1.1831516e-02
  2.1001985e-02
 -1.6278006e-02
 -3.2785445e-02
  1.1161916e+00
 -3.1950075e-02
 -5.5395361e-02
 -1.3316868e-01
  3.4229606e-03
 -1.7608151e-01
 -1.2154142e-02
  6.3817635e-02
 -3.3517834e-02
 -6.6902158e-03
  2.4515714e-01
  8.0352038e-02
 -3.6267468e-01
  4.2409454e-03
  6.1909840e-03
  9.4953887e-02
 -8.6042933e-02
 -2.1527561e-03
 -3.4364316e+00
 -7.7554613e-02
 -2.3348188e-02
 -4.5102990e-01
  8.1090249e-02
 -2.3615258e-02
 -2.3025403e+00
 -2.2752706e-02
 -1.1070196e-02
  6.4669177e-02
  2.5241913e-02
  2.7688864e-01
 -5.4427791e-02
 -1.7269414e-02
 -1.3420411e-02
  4.9099702e-01
  3.2000031e-02
 -7.2444588e-02
  5.6936115e-01
  7.2337897e-03
 -3.7643336e-02
  1.1053171e-02
  5.4031484e-02
  3.5859942e-02
 -8.6491697e-02
 -4.0099259e-02
  4.9580891e-02
  2.1023487e-01
  3.4862205e-02
 -1.3855756e-02
 -6.3248016e-02
 -2.4283346e-02
  7.9782248e-02
 -1.1929626e-03
  1.6021168e-02
  6.2972223e-03
 -1.0280485e-02
  3.5429798e-02
  3.9911550e-02
 -5.9281392e-03
  2.6760483e-02
 -6.3260570e-02
 -1.9167766e-01
 -2.5000133e-02
  1.5756471e-02
 -1.7251115e+00
  4.7823973e-02
  2.1057694e-01
  8.9776879e-03
  4.7302023e-02
 -1.0065776e+00
 -2.3041415e-01
  2.1158962e-01
  6.8928190e-03
  2.9996920e-01
  1.1941537e-01
 -4.9381860e-02
  1.6526598e-02
  2.9699631e-02
  7.1909418e-03
 -1.9403362e-03
 -8.9588434e-02
 -1.4376627e-01
 -1.2782753e-02
  5.0456591e-02
 -5.6124467e-02
 -3.1030604e-01
 -2.3761814e-02
  1.8426184e-02
  1.6972327e+00
 -6.8716127e-01
 -4.8286960e-02
  4.6130470e-03
  5.9103929e-02
 -1.9222017e-01
  4.8339378e-02
 -5.3125083e-02
  9.7185066e-03
 -6.3195653e-02
 -3.3609524e-02
 -1.0274739e-01
  2.1039730e-02
  6.5525539e-02
  4.3919574e-02
 -7.5290585e-03
 -1.9001003e-02
  6.4898551e-02
 -1.0480804e-01
  3.2979909e-02
 -2.1635562e-02
  1.0818495e+00
 -4.6074003e-01
  3.9293831e-03
  2.1149905e+00
 -1.4436806e-02
  6.2905349e-02
 -5.2197482e-03
  9.2208777e-03
 -2.0143447e-02
 -1.9299957e-01
 -2.6272856e-02
 -4.6749550e-01
 -2.0078626e-02
  3.9400619e-02
 -2.3696774e-01
  2.6170423e-02
  6.2357858e-02
 -9.7173184e-02
  6.5770000e-02
  3.4948684e-02
 -9.3475111e-02
  1.3162085e+00
  5.8613826e-02
  4.0900994e-02
 -8.4632579e-03
 -6.0787871e-02
 -3.6579631e-02
  2.2513641e-02
 -3.8975626e-02
 -4.8790000e-02
  2.7357468e-01
  9.8388523e-02
  4.8382762e-03
  2.1450374e-02
 -3.7541315e-02
 -8.9568635e-03
 -6.2697865e-03
 -5.4473311e-02
  1.7958930e-02
  2.2833545e-02
  4.2902358e-02
 -4.9446933e-03
  6.5227103e-01
 -2.5617934e-03
  2.1762326e-02
 -2.1861114e-02
  1.4754829e-02
  9.2613980e-02
  8.1294134e-02
  3.5486039e-02
 -2.1908540e-02
  5.1434781e-02
 -1.8167294e-03
  3.1537659e-02
  6.5392465e-03
  3.3850860e-02
 -2.1178918e-01
  8.7003484e-02
 -5.7188574e-02
 -5.3905740e-02
  4.2994540e-02
 -9.5062004e-03
  1.8196538e-01
  4.0170106e-01
  1.3203966e-02
 -9.8792952e-01
 -6.2824681e-02
 -3.8501631e-02
  2.2904778e+00
  5.4057097e-01
 -1.5646204e+00
  9.4786137e-03
  1.7006127e-02
  2.2206621e-03
 -4.6158745e-03
 -2.4661265e-02
 -4.6808583e-01
 -3.2370225e-02
 -6.0040969e-02
  1.5109841e-02
  6.3803501e-02
 -5.7854436e-02
  6.6072032e-02
 -5.3325668e-02
  1.7526504e-02
 -1.4384727e-02
 -2.2597191e+00
 -1.4252813e-01
  9.2762387e-01
  6.3269652e-02
 -1.9979648e-02
  1.0142661e-01
  2.8804669e-02
  5.4297343e-02
  6.1004303e-02
 -7.4041016e-02
 -8.9235902e-03
  5.2836048e-03
  4.8361495e-02
  1.3142300e-01
  4.1544558e-03
 -1.2144162e-01
 -5.8076513e-04
 -2.8159868e-02
 -2.3029413e-02
  6.9302149e-02
 -9.6527807e-04
  3.4861516e-02
  9.8619936e-03
 -3.1919315e-02
  1.2871060e-02
 -3.4600627e-02
 -2.1453362e-02
  7.0910563e-04
  4.9115051e-02
 -8.8414028e-02
  6.0367392e-04
 -5.3678799e-02
  5.4196417e-01
  1.0021415e+00
 -1.6641326e-02
 -3.1246673e-03
  1.8468387e-01
  2.2789795e+00
 -8.3851153e-01
 -1.4525884e-02
  3.1367938e-03
 -1.8548157e-02
  4.1031655e-02
  1.0897274e-01
  2.2134112e-02
 -7.5564072e-02
 -2.0532282e-02
 -5.6476321e-02
 -3.7261031e-03
  3.4056354e-02
  2.8612109e-02
 -1.2372870e+00
  2.2035258e+00
  6.4596431e-03
 -2.1621831e-02
  6.0572647e-02
  1.0789711e-01
  7.2122612e-03
 -2.7064344e-02
 -9.8048888e-02
 -3.6013580e-03
 -1.4235200e-01
  1.3358101e-01
  9.9572396e-01
 -5.8521088e-03
  9.6301094e-02
  1.1740010e+00
 -1.1930390e-02
  1.3074254e-02
 -5.0536882e-02
  8.5712367e-01
 -4.2381119e-02
 -5.3924811e-03
 -1.3141574e-01
  4.2030588e-02
  6.2520928e-03
 -2.3996253e-02
  1.5210301e-03
  2.9059622e-02
  8.2306340e-02
 -6.3227840e-02
 -8.7397031e-02
 -1.3364260e-02
  4.7508395e-01
  3.7769288e-02
 -3.8908439e+00
 -1.6869142e+00
  8.5127940e-03
  9.4861485e-02
 -9.7865738e-02
 -1.1142553e+00
 -1.5087202e+00
 -2.2310967e+00
 -3.8246173e-02
 -1.0371453e-01
 -9.5756948e-01
  1.8973781e-01
  3.8016852e-02
 -6.1427997e-03
  3.8626917e-02
  5.9060041e-02
 -2.6329461e-01
 -3.2650236e-02
 -1.7280041e+00
 -2.0113291e-01
 -2.7572643e-02
 -1.0776876e-03
  4.0441164e-01
 -6.7880891e-02
  8.2967781e-02
  3.7873372e-02
  5.3529285e-02
 -6.9256052e-02
 -8.6226650e-02
 -1.4613165e-01
 -2.4699533e+00
  1.5084468e-01
 -1.0906533e-01
  1.4314474e-01
  8.6598314e-02
 -5.5157807e-02
 -5.9160147e-02
 -6.3384441e-04
 -1.5466918e-02
  1.4074359e-02
 -6.3623331e-02
  3.2244880e-02
 -1.5442161e-02
 -1.3614665e-01
 -2.1534767e-03
 -4.1104104e-02
  1.1920217e+00
 -6.6754511e-03
  2.7625736e-02
  1.0588827e+00
 -1.0448232e-01
  6.8634816e-02
  2.8967811e-02
  7.6368093e-01
  1.9729795e-01
 -1.1566661e-01
 -1.1543285e+00
 -3.3155415e-02
 -9.5531678e-01
  3.5076582e+00
  9.7799349e-01
 -1.0742145e+00
  2.7777595e-02
 -6.7834280e-02
 -1.3534755e-02
  7.2947428e-02
  4.2366821e-02
  2.6886496e-03
 -1.6273464e-01
 -1.7335795e-01
 -7.5477250e-02
 -2.3102604e-03
 -1.7038567e-03
  1.7360490e-02
  3.0760551e-02
 -1.2848625e-01
 -3.3510756e+00
 -3.6100548e-02
  1.1398685e-01
 -1.5720783e-02
  1.9031867e-02
  6.4313076e-02
 -5.0078142e-02
 -3.1801548e-02
  3.1343445e-02
  3.3193517e-03
  6.3479044e-02
 -1.7658331e-02
 -8.4256388e-02
  4.1607334e-03
  5.4315649e-02
  5.0078958e-02
  5.1525599e-01
  2.4320012e-02
 -5.8970649e-02
  1.3095897e-02
  1.0019858e-02
 -1.1611163e-01
 -2.2389999e-02
 -5.1474231e-03
 -9.0935223e-02
  1.0318632e-01
 -1.3566431e-01
  4.5813851e-02
  4.3502124e-04
 -5.2481961e-01
  1.2161189e-01
  6.9165207e-03
  3.4142053e+00
 -3.9610820e+00
 -1.7518024e-01
  1.4197818e+00
 -6.7636395e-01
  2.1029334e-01
  2.1138840e+00
 -1.0082712e-02
  3.0871373e-01
 -9.9330679e-02
 -8.4315687e-02
 -2.1529635e-03
 -9.1993123e-02
 -1.7847472e-01
 -3.4350552e-02
 -3.1035118e-02
 -2.3534862e-02
  2.0477947e-02
  1.9302949e-01
  1.1321838e+00
 -1.7420889e+00
  7.4646915e-03
  1.0311993e-01
 -4.7326230e-02
 -1.0917311e+00
 -2.2480693e-02
 -1.5459868e-01
  4.0622301e-02
 -1.2571326e-02
 -2.3576984e-02
  4.8638131e-02
  2.4461847e-02
 -6.4763345e-02
  1.9894090e-01
  9.8019265e-02
  2.1095605e-01
  2.0654480e-01
 -4.3533260e-01
 -1.5689032e-01
  8.1570767e-02
  3.3807456e-01
  1.9450752e-01
 -2.4370778e-02
 -9.1013514e-02
  1.4694543e+00
  2.2063883e-02
  4.4929829e-01
  9.2233159e-02
  1.3077573e-01
  4.7247723e-02
 -4.5732990e-02
 -5.7837486e-02
  4.1476779e-02
  3.2321900e-01
 -6.9483280e-02
  7.5175479e-02
 -1.4666977e+00
 -1.9827387e-01
  8.4311612e-02
  2.5803869e+00
  7.8933632e-01
 -5.8621585e-01
 -5.7273250e-02
 -5.6246519e-02
 -3.3211578e-02
 -2.1923836e-01
 -4.6483010e-02
  8.1862554e-02
 -7.0512004e-02
 -3.4322757e-02
  1.4223203e-01
  4.0296796e-01
 -5.1761031e-01
 -8.6720604e-03
 -2.4488217e-01
 -3.2098968e-02
 -8.4426367e-01
 -6.9941588e-02
  2.9002685e-02
  1.9371787e-02
 -4.0731706e-02
  1.9006576e-02
  1.2589782e-01
  1.9395182e-01
  6.8909805e-03
 -7.1807690e-02
 -5.9433829e-02
 -4.6888124e-02
 -8.2658842e-02
 -2.4409737e-01
  6.9666222e-02
  1.2311264e-01
  8.5102482e-04
  7.1322978e-02
  5.3330153e-02
 -5.4039829e-03
 -5.8196854e-02
 -4.7518685e-01
 -5.7546545e-02
  8.8196713e-03
 -1.8305697e+00
  9.0558246e-02
  4.3726698e-02
 -6.3901827e-02
  1.6760176e-02
  1.7124947e-02
 -1.6413958e-01
 -2.9462841e-01
 -2.3194084e-01
 -2.1191818e-01
  1.0930912e+00
  6.0663544e-02
  5.5919999e-01
 -3.1335590e+00
 -5.0563425e-01
  1.0381933e+00
 -4.0170215e-02
 -1.8840656e-01
  1.2205585e-01
 -3.6006100e-02
 -6.1650887e-02
  1.2931789e+00
 -1.4082870e-01
 -6.1161894e-02
  8.7446533e-02
  3.5118732e-01
 -2.0466790e-02
 -5.7931997e-02
  3.3331443e-02
  1.7664485e-01
  1.6464545e-01
  1.1729003e-01
 -7.3886037e-01
 -1.1688913e-02
 -1.1664888e-01
 -2.0607024e-02
 -8.7600447e-02
  1.4716972e-01
 -3.7222069e-02
 -1.3341179e-01
 -1.6688976e-02
  2.4102309e-01
 -2.7720284e-01
 -8.8826016e-02
  5.0557960e-02
 -4.8785850e-01
  1.7910543e-03
 -8.4073460e-03
  1.1444996e-02
  7.3459451e-03
  4.3000011e-03
 -5.3537294e-02
  1.5202425e+00
  9.6234638e-04
  1.7512381e-01
  4.6241703e-03
  2.1267669e-01
 -1.2977818e-01
 -4.5497529e-02
 -3.0831464e-02
 -3.4926122e-03
 -4.8395459e-02
  2.2468014e+00
  6.7311585e-01
 -2.3084314e+00
  2.1466553e+00
  8.4163606e-01
 -8.5189044e-01
 -5.5395812e-01
 -5.0066732e-02
  2.6037998e+00
  1.7719987e-01
 -2.8842828e-01
 -5.9783053e-01
 -2.2749803e+00
 -6.7550457e-01
  1.4421438e-01
 -4.9687144e-01
 -2.1770865e-01
 -3.2980002e-02
  7.3778945e-01
 -9.4897479e-01
  6.6354924e-01
 -2.5085273e+00
 -2.0021167e+00
  8.3505586e-02
 -2.9505441e-01
  1.5783525e-01
  6.4635679e-02
  7.1727827e-02
 -4.1441727e-01
 -5.5942869e-01
  3.5789874e-01
 -6.1238718e-01
  6.1525238e-01
 -4.4746831e-01
 -1.2190239e-02
 -2.9101813e-01
  3.1553665e-01
 -3.2219595e-01
 -1.5208654e+00
 -6.9871289e-01
 -1.1217271e+00
  3.1879127e-01
 -5.6268287e-01
 -3.0293360e-03
  9.0627217e-01
 -2.9337576e-01
 -8.9022413e-02
 -1.4297345e-01
 -2.7646635e-02
  1.9537833e-02
  1.1164926e-01
  6.7296863e-01
  1.1004778e-03
  1.0665025e+00
 -9.4082570e-01
 -3.3544896e+00
 -1.5546336e+00
  2.3969835e-01
  6.1118562e-02
  9.9475604e-01
  1.6965442e+00
  1.2417084e-01
 -1.7363393e+00
  3.4024239e-02
 -9.4812948e-01
 -4.7058541e-01
  3.7944612e-01
  1.5150616e-02
  8.7846844e-03
 -5.6175035e-01
 -2.4604933e-01
  9.7372375e-02
 -7.2165447e-01
  9.5062502e-02
 -1.0877764e+00
  8.5129598e-03
 -3.3964282e-01
 -1.6603507e-01
 -5.3522557e-01
  6.3540179e-01
 -1.4678680e+00
  5.8876628e-01
 -2.1696382e-03
 -4.0926614e-01
  3.6003487e+00
  5.7856292e-01
 -2.7408007e-01
  2.9138163e-01
  2.9074249e-01
  3.4622687e-01
 -5.0469297e-01
 -7.2255008e-02
 -1.4866899e-01
  9.6117919e-03
  1.9921969e-01
  3.4211058e-02
 -1.8963026e-01
 -4.0114737e-01
 -7.0635742e-03
  1.6375689e-01
  6.5598421e-02
  3.5861369e-02
 -3.1121021e-02
 -1.0501998e-02
 -1.8327141e-02
 -4.8136365e-02
  1.0501201e-01
  9.9409316e-03
 -6.6391259e-02
 -3.3075891e-02
 -3.0617723e-02
 -4.3285888e-01
  4.9736716e-02
  1.4035795e+00
 -2.2998193e-01
 -8.1793547e-01
  8.5276134e-02
  2.2331111e-02
  4.2080928e-02
  1.8253557e-02
 -5.8704015e-02
 -1.9198216e-02
 -1.5199052e+00
  1.3021314e-02
  5.6911755e-02
  1.0298134e-01
  2.3957487e-02
  5.7075970e-02
  1.7229012e+00
  1.4570362e-03
 -7.0779875e-05
  3.8735688e-02
  4.1303646e-02
 -5.7754140e-02
  4.7031179e-02
 -1.0400289e-01
 -5.4181296e-02
 -1.3972132e-02
 -6.5955736e-02
  9.4351925e-02
 -5.6513035e-01
 -4.1673384e-03
 -7.0574328e-02
 -6.6994600e-02
 -8.0558926e-02
 -6.7370415e-01
 -7.2045368e-01
 -1.7548820e-01
  5.1540446e-02
 -3.7526429e-02
 -1.8529870e-01
 -6.2565684e-01
 -8.0644719e-02
 -3.0543564e-02
 -4.1311607e-02
  2.3350245e-01
 -8.6589175e-01
  7.0345417e-02
  2.8362397e-02
 -1.6032219e+00
  2.6274901e-02
  6.2553728e-01
  3.7741736e-02
 -3.8598067e-01
 -2.2095802e+00
  2.1548294e-01
 -9.4541281e-02
 -1.3502181e+00
 -1.3199778e+00
  7.3596758e-01
  6.2620044e-02
 -2.9028965e-02
  2.5462422e-01
  1.5575056e-01
 -1.8451965e+00
  8.7282799e-02
  3.0891539e-03
 -3.5041653e-02
 -3.2074396e-02
 -4.0335048e-02
  1.7576594e+00
 -1.2780254e-02
  3.9674705e-01
 -7.1747854e-02
  6.3193703e-01
 -8.6420774e-02
 -6.2848026e-01
 -3.3275820e-02
 -1.7511941e-02
 -9.9234162e-03
  1.2857080e-02
 -4.6295837e-01
 -5.2323818e+00
  2.5265364e-03
 -1.0706908e-01
 -2.1926949e-02
  6.2263113e-02
  2.2011094e-02
 -5.7137638e-02
  2.2040676e-01
  2.9595615e-02
  4.0808162e-01
  1.5527989e-02
  2.4103291e-01
  6.7658091e-01
  6.1170901e-03
  3.7957106e-02
  8.6214552e-03
  2.2592004e-02
 -8.7465130e-02
  3.1595603e-02
 -1.1599164e+00
 -5.5157762e-02
  7.8761712e-02
  9.1058370e-03
 -7.8827053e-01
  6.5978879e-01
 -4.3288890e-01
  4.4893065e-01
 -5.9376740e-01
 -4.5063126e-01
 -1.1763370e+00
  3.3853250e+00
  2.7610855e+00
  2.0580528e+00
  2.9971436e-01
 -4.3837592e-01
  7.1046829e-01
  1.6556480e+00
 -1.9694142e-01
 -2.3095462e-01
 -1.0567860e-02
 -1.0240750e+00
  6.2796885e-01
  3.6665201e-01
 -1.0006629e+00
  8.0995446e-01
 -2.3013373e-01
  2.4656467e-01
 -1.1919472e+00
  1.5178761e+00
 -3.9911908e-01
 -1.1187356e+00
  8.0774892e-03
 -2.8231363e+00
  4.4939041e-01
  1.2159815e-01
  7.8779965e-04
 -4.3949962e-01
  2.6107349e-02
  4.6376634e-02
 -2.2015768e-01
 -1.5422961e-02
  6.2922008e-02
 -3.8776544e-01
  1.7167526e-01
 -2.0298705e+00
  5.8081269e-01
  6.4386714e-01
 -1.8070941e-01
 -8.2628071e-01
  1.5336230e-01
  3.5364148e-01
 -3.8830084e-03
  2.6346570e-02
  1.0494044e-01
 -1.0277705e-02
 -1.0597260e-02
  1.4868023e-01
  6.1397731e-02
 -1.2161325e-03
 -2.1331647e-02
 -9.0192378e-02
 -1.3031354e-03
  6.4194947e-03
  6.5058923e-01
  5.8677158e-04
 -6.6208512e-01
 -1.2381328e-02
  2.1432295e+00
 -2.1478049e-02
  7.9366311e-02
 -4.1537892e-02
  2.3806749e-02
  3.1766596e-03
 -3.9199851e-02
  1.2914569e-02
  5.5343162e-02
 -4.1064336e-03
  3.2235201e-02
  3.3646271e-02
 -1.6131481e+00
  2.9719666e-02
 -8.7887809e-02
 -5.7709343e-03
 -3.4842275e-03
  2.5403017e-02
  1.5285779e-02
  5.1505048e-02
  8.0092651e-01
 -5.0485688e-03
 -9.5424205e-02
  4.5827072e-02
  4.7827769e-02
  7.2001986e-02
  2.1069562e+00
 -1.3781379e-02
 -4.3265740e-03
  3.7561726e-02
  4.9781561e-02
  4.8014577e-04
  7.7462578e-03
  9.5770746e-02
  2.9255999e-02
 -2.6222887e-02
 -2.8013593e-01
  1.8236192e-02
  3.1048004e-02
 -1.4335814e-01
 -1.0790201e-01
 -6.4727187e-02
  4.5754626e-02
 -1.2428066e+00
  2.8956491e-01
 -8.6701757e-01
  1.8874780e+00
  8.1997120e-01
  8.5707396e-02
 -2.3411074e+00
 -1.2545007e+00
  2.5918975e-01
  4.9012508e-02
 -1.9503933e-01
 -1.2455585e-01
 -8.6353822e-03
  3.2848030e-02
  3.1183609e-01
  3.1682819e-02
 -5.2521951e-03
  3.8506482e-02
 -1.2215354e-01
  6.2049285e-02
 -6.9058798e-02
 -6.6224150e-03
 -1.6483188e-01
  1.2571400e-02
  8.9930463e-01
 -1.1045996e-02
 -9.0200245e-02
 -9.1395520e-02
 -8.8545457e-02
 -1.1197411e-01
  3.6132105e-02
  3.2315869e-03
 -1.8762715e-02
 -5.2186228e-02
 -3.2276899e-02
 -7.7025384e-02
  1.0664407e-02
  2.7658883e-01
 -5.3485543e-02
  4.4697732e-01
  4.7011364e-02
  3.6862548e-02
 -2.5382752e-02
  3.5999604e-02
  6.0397885e-03
 -3.0352756e-02
 -2.5149334e-02
 -1.9359890e+00
  6.2908664e-02
  4.0650582e-03
 -1.2228031e-01
  1.0443798e-02
 -3.3829268e-02
  3.8613625e-02
  1.6409079e-02
 -3.2667012e-03
 -3.3910863e-02
  7.4440616e-01
 -1.6585133e+00
 -5.2913018e-02
 -8.9124188e-02
 -3.5659025e+00
  4.7260821e-02
  2.7605090e-01
  4.5888726e-02
  1.0434518e-02
 -1.2322382e-02
 -3.2272007e-02
  1.6539395e-02
  2.1921580e-03
 -1.2489362e-02
 -1.0714314e-02
  6.3456679e-03
 -3.8110679e-03
 -4.8367649e-02
 -1.5365577e-01
 -8.5956365e-02
  4.2009264e-02
 -1.1414573e-01
 -8.9973388e-03
 -2.3851356e-02
 -6.0170043e-02
 -8.8663086e-02
  2.0141674e-02
 -3.1091619e-02
 -6.0942687e-02
  5.3592030e-02
 -2.8694665e-01
 -1.0024638e+00
  4.8974678e-02
 -3.3666067e-02
 -1.4668141e-02
 -8.4399365e-02
  9.7315907e-03
 -6.1443690e-02
 -2.2213399e-02
 -2.2767937e-02
  1.2665266e-02
  3.3822350e-02
  1.9663258e-02
 -6.9070631e-01
  1.7213285e-02
  1.3136770e-01
 -4.6172060e-02
 -2.9294658e+00
 -7.7583566e-02
  1.8343713e-02
  1.8408976e-01
  7.0235088e-02
  5.7156410e-02
 -8.0161971e-01
  7.5888671e-02
  3.0476859e-01
 -8.4423050e-02
  5.0512880e-02
 -1.0439838e-01
 -1.0117759e-02
 -2.0379059e-01
 -1.2767072e-01
 -4.0395535e-03
  3.5059344e-02
  2.1772772e-02
 -3.2905452e-02
  7.1928133e-03
 -2.8260862e-02
  5.8771119e-02
  9.0066418e-02
 -2.0223381e-02
  1.3481121e-02
 -2.8790168e-02
 -9.9954218e-02
 -1.5377878e-01
  1.2375683e+00
 -2.7258741e-02
  2.7974512e-02
  6.3114695e-02
 -4.7059456e-04
  2.0521216e-03
  1.4129795e-01
 -1.8689239e-02
 -1.7925000e-02
 -2.9819176e-02
  7.6250263e-02
  4.0814985e-02
  9.3077347e-03
 -9.5036522e-02
  1.1653027e-02
  6.5951003e-04
  6.0183443e-03
  4.9617518e-02
 -1.3630201e-02
  1.2653893e-01
 -6.9440044e-03
  1.8641107e-02
  2.1268332e-03
 -7.0236780e-02
  2.2092755e+00
  3.8811690e-03
 -4.2735625e-02
 -4.6829812e-02
 -1.8576726e-02
 -1.8558349e-02
 -1.1495662e-02
  7.9680485e-01
  1.1222831e+00
  2.3760912e+00
  2.0360312e+00
 -5.1141524e-01
  2.3578432e-01
 -2.4284716e+00
  2.8854478e-02
 -1.8167666e+00
  8.9199208e-02
 -5.1122855e-02
  1.0581640e-01
 -1.5024461e-01
  1.8271512e+00
 -4.2630154e-01
  9.4724154e-01
  8.9619502e-02
  4.2904534e+00
 -1.2001677e-01
  4.9083345e-02
 -9.3558264e-01
  9.5171279e-01
 -1.0669752e-03
  1.3708893e+00
  3.2953039e-02
  1.0668476e-01
  3.7295282e-02
 -1.7044351e-01
  4.9007311e-03
  3.6857036e-01
  3.4573275e-01
  1.4773278e-02
 -7.8452587e-02
  2.9121014e-01
 -5.2734613e-01
  5.5643523e-01
 -1.4839734e-01
  7.7749789e-01
 -2.9705307e-01
  5.6427276e-01
 -3.9882904e-01
  4.1330356e-02
  5.3722292e-01
 -4.2120865e-01
  1.8688838e-01
  4.6178266e-02
  3.1883236e-02
  3.1627819e-02
  1.1737955e-01
 -1.2888145e+00
  9.6122921e-02
  6.0220826e-02
  3.0738713e-02
 -3.2105795e-01
  6.6252863e-01
 -5.8590698e-01
 -5.1357508e-02
  7.6769727e-01
  1.3543196e+00
 -1.0140743e-02
 -3.1072567e+00
  6.4631546e-01
  2.0200794e+00
 -2.5492687e-02
 -9.7973542e-03
 -3.4073211e-02
 -3.8676191e-02
  5.0921058e-03
 -2.0499016e-01
  3.4316618e-02
  3.8916472e-02
 -2.6695342e-03
  3.0802548e-01
 -8.7430038e-02
  1.5551750e-02
  2.5146681e-01
  1.7226432e-02
  3.2306700e+00
 -1.1058071e+00
  2.0504167e-02
 -7.3405273e-02
  1.3662513e-01
 -1.0872261e-02
  4.1310966e-02
 -6.9373599e-03
  2.0202670e-01
 -8.2078934e-02
  2.0742623e-02
 -6.2983885e-02
  9.0776188e-03
  2.1467443e+00
 -5.2394263e-02
 -8.4221521e-03
  2.0917494e-02
 -1.0528418e-01
 -2.2408135e-02
 -1.4805222e-01
  1.6716936e+00
 -6.6553213e-02
 -2.0970100e-01
 -9.8627090e-02
 -1.2186627e-01
  4.1700471e-02
 -4.1023262e-02
  2.7569991e-02
  2.0704826e-02
 -4.5344185e-02
  8.7694459e-02
 -5.4961079e-01
 -2.4997139e+00
  7.2864205e-01
 -7.3821771e-01
  2.3611145e-01
 -1.6232543e-01
  9.1827732e-01
  1.2971041e+00
  9.0888220e-01
  2.0103733e-01
  2.0477872e-01
 -1.0947062e+00
  3.1786725e-01
  3.7795928e+00
 -1.7790689e+00
  1.2461106e-01
 -7.1405873e-02
 -1.4271184e-02
 -8.1528641e-02
 -1.0704330e-02
 -2.7996889e-01
  6.2669498e-01
 -2.6546559e-01
 -5.4006726e-01
  7.0921814e-01
  1.3208278e+00
  5.6592137e-01
 -9.8558176e-01
  4.1710019e-01
  3.7641097e-02
 -1.9135993e-02
  1.5613139e-01
 -1.4996516e-03
  4.4843543e-01
 -5.8501180e-02
  2.5751770e-02
 -1.4837279e+00
  1.3709754e-01
 -8.5795921e-01
  2.6549014e-01
 -9.2041552e-01
  1.1252254e-01
  1.1417135e-02
 -1.6784619e+00
 -4.9103294e-02
  7.4079931e-01
 -4.7688510e-02
 -3.3504382e-02
  1.6542709e-01
 -3.2830852e-01
  6.6602968e-02
  4.4152454e-02
 -1.1358464e-02
 -1.2411171e-02
 -6.2793240e-02
  1.8121321e-01
  7.7121902e-01
 -3.8959102e-03
 -1.1063920e-01
  2.2749507e-01
 -6.9178689e-01
  1.0298713e-01
 -4.4380209e-01
 -9.4199258e-01
  1.7626600e-02
  3.0928673e-02
  2.4875263e-03
 -5.6525141e-02
 -1.9402476e-01
  1.2132481e-02
  1.3703911e-02
  1.1047446e-02
  9.3845986e-02
  3.0054774e-02
 -8.8278264e-02
 -8.7582871e-02
  3.0150015e-03
 -2.3819420e-02
  2.0572457e-02
 -1.6413920e-02
  4.5752276e-02
  1.1938875e-02
 -2.8447965e-02
 -2.3252800e-02
 -4.3765092e-03
  1.0398042e-01
 -5.7828659e-04
 -2.0590088e-04
 -7.9249495e-01
 -1.1519558e-02
 -3.5531588e-02
  5.0863419e-02
  1.6545338e-03
 -3.5429284e-02
 -4.1322354e-02
 -2.6790584e-03
 -3.4511946e-02
 -3.3571016e-02
 -5.0816376e-02
  1.9670956e-01
 -6.9771081e-02
 -8.0845296e-02
  1.8749714e-03
  4.7758654e-02
  2.1633297e-02
 -3.8002122e-02
  3.0211275e-03
 -1.4524591e+00
 -1.0829930e-02
  4.8345968e-01
  1.7479600e-01
 -1.6695558e+00
 -4.5062277e-02
 -2.1475926e-01
  2.6080222e+00
  4.1889903e-01
 -3.3262759e-01
  1.4098804e-02
 -1.4495187e-01
 -1.0235908e-01
  1.2040375e-01
 -4.1647446e-03
 -1.4224428e-01
  2.5592752e-02
 -4.5581307e-02
 -6.6302449e-02
  1.5110476e-01
  4.5034450e-01
 -1.1225487e-02
 -1.4860387e-01
 -1.2092738e-01
 -2.3083322e-02
 -2.5205088e+00
 -3.5931345e-02
 -4.7653344e-02
  1.0049114e-01
 -6.1817463e-02
  1.3085347e-01
 -1.2506989e-01
 -4.0082794e-02
  4.2686830e-04
  3.5249706e-02
 -7.4373573e-02
  7.6913618e-02
 -7.1210128e-01
 -5.1141545e-02
  1.0701498e-02
 -2.8131543e-02
  4.0983032e-02
  4.2647809e-02
 -6.4218915e-03
  1.5259106e-01
 -3.8169067e+00
  5.9208140e-02
 -9.7333945e-02
  2.5934814e-03
 -4.5088146e-02
  3.5629876e-02
  3.3744004e-02
  5.6857165e-02
 -2.0361051e-03
  2.3822425e-02
  3.0547377e-02
  5.3909236e-01
  4.5170798e-03
  7.2136456e-01
 -7.9378122e-01
 -9.9830234e-01
 -2.6554976e+00
  4.4145942e+00
 -4.2588045e-03
  2.6337652e-02
 -5.3481515e-02
 -4.3172013e-02
  1.7325546e-03
  4.7136027e-02
  1.1490040e-01
 -8.1911787e-02
 -3.4070317e-02
  3.5490431e-02
  1.0463412e-01
 -8.2791395e-02
  4.9725599e-03
  1.8337224e-02
  6.7071348e-02
  2.4566036e-02
 -1.1204872e-03
  4.7366619e-03
  9.5468704e-03
  1.7788911e-01
 -6.1003923e-02
 -1.3585141e-03
  7.5979764e-03
 -2.0191108e-01
  3.3484463e-02
 -1.0587144e+00
  1.3673239e+00
 -3.1172283e-02
 -1.4603879e-02
 -5.7473306e-02
 -1.1744178e-03
 -2.3652986e-01
  7.6409906e-02
 -5.0573862e-01
  1.4382011e+00
  2.6108889e-02
  1.4525838e+00
 -7.4663316e-03
  1.5910683e-02
 -4.0034568e-01
  1.7149713e-02
  6.0781062e-02
 -7.7357194e-03
 -1.4129163e-01
  2.6983535e-02
  1.1818448e+00
  6.5566003e-01
  4.3811095e-01
 -1.0304978e+00
  5.9309989e-01
  1.4010346e-01
 -5.0107622e-01
  3.1114557e+00
  3.1836087e-01
  5.7502484e-01
  1.1990870e+00
 -9.5031552e-02
 -3.1438064e-02
 -1.3713913e+00
  6.6279304e-01
  1.2112634e+00
  1.0327878e+00
 -4.9875766e-01
 -6.8897374e-02
  4.0523353e-01
 -1.1985937e+00
 -1.0744227e+00
 -2.6333413e-01
 -5.9368867e-01
 -9.7305335e-02
  2.7428475e-01
  6.0974085e-01
 -9.3327892e-01
 -7.8220999e-01
  8.3115709e-01
  2.1111293e+00
  1.0575705e+00
  1.2029190e-01
 -1.8685554e+00
  7.9556084e-01
 -1.7940611e-01
  4.1234019e-01
 -2.0354163e-02
  2.8203416e-01
  1.6859961e-01
  6.1448401e-01
  2.0534399e+00
  1.1552939e+00
 -4.8543686e-01
  2.3725232e-01
  3.8902766e-01
 -8.6902368e-01
  6.0868961e-01
  3.1018806e-01
  6.4083952e-01
  1.7419691e-01
  3.0824322e-01
  1.2199516e-01
 -4.0314370e-01
  1.6822946e-01
  8.8880575e-01
 -2.1428820e-02
  5.6014472e-01
 -2.6153502e-01
  2.0876677e-01
  1.5210858e-01
 -2.6927844e-02
  1.5951096e+00
 -2.3360892e-01
 -5.1950437e-01
 -7.0205349e-01
 -7.3493117e-01
  7.3817486e-01
 -2.7655861e-01
 -2.1690363e-01
 -1.4336394e-01
 -1.5352159e+00
  2.7021220e-01
 -2.4135509e-01
 -1.1250209e+00
  7.3410296e-01
  2.5235988e-02
 -2.9997832e-01
 -5.0574627e-02
  9.5996535e-01
  1.7894304e+00
 -1.3242443e-01
  3.6259767e-01
 -1.0118461e+00
  9.9799478e-01
 -6.8470198e-01
  1.4516948e+00
 -7.0191717e-01
  7.3131889e-02
 -3.4846395e-01
 -1.0010791e+00
  9.6654451e-01
 -2.1938053e-01
  2.6411322e-01
  4.4010140e-02
  6.3025022e-01
 -1.5293375e+00
  6.0410357e-01
  8.5602961e-02
  5.2976632e-01
 -2.0846382e-01
  3.4560475e+00
  1.3432845e+00
 -5.6083280e-01
  1.3883999e-01
  9.8204993e-02
  5.8811212e-01
  1.3101266e-01
  2.5307257e+00
  1.1932139e+00
 -2.0633366e+00
  2.3310337e+00
  3.3882731e-01
  2.1177294e+00
  1.5556344e-01
  4.1700578e-01
  1.1497778e+00
  7.6106423e-01
  2.5104768e+00
 -1.6881837e+00
  2.4235685e+00
 -2.5579146e-01
  1.1483889e+00
 -4.0498109e+00
 -1.2932923e-01
  1.1101395e+00
  1.5974593e+00
  1.4145260e+00
 -2.8138292e-01
 -6.7170483e-01
  4.0066707e-01
  8.3915120e-01
 -2.4932745e+00
 -1.4495445e+00
 -8.8279504e-01
 -2.4234502e+00
 -7.4355847e-01
 -1.4504023e-01
  7.2711504e-01
 -1.0244308e-01
  3.1148672e+00
  2.7491636e+00
  4.7248158e+00
  1.1115787e+00
 -1.8643670e+00
  1.0512706e+00
 -6.7374274e-02
 -5.0967120e-02
  4.2972464e-02
 -8.4234163e-02
  3.1567165e-01
 -5.3221572e-02
 -1.7316919e-02
  2.0614772e+00
  5.8307331e-03
 -2.0947049e+00
  6.2298840e-01
 -9.4878882e-02
  2.0968642e+00
  2.1605263e+00
  8.3267641e-01
  1.7021632e+00
  3.7444048e+00
  1.1492103e+00
  1.5205166e+00
  5.0567967e-01
 -3.4853528e+00
  2.0067859e+00
 -2.8934858e+00
  4.4870046e-01
 -7.0290762e-01
  5.3440267e-01
  8.7304890e-01
  4.5284069e-01
  8.7404650e-01
  1.3774267e+00
  2.5107405e+00
 -2.4126167e+00
 -2.9288414e-01
 -2.1384320e-01
  1.0757823e+00
  1.3100886e+00
 -1.6707648e-01
  1.5474212e+00
  2.3091793e-01
  1.2776370e+00
 -4.9690065e-01
  1.6460978e+00
  1.1450815e+00
  2.5704679e+00
 -6.6857137e-02
  3.4290662e-01
 -1.1008932e-01
  2.5038218e+00
  8.2260984e-01
  3.2695479e+00
  2.0686119e+00
 -1.4547813e-02
  1.3155689e+00
 -1.2042378e-01
 -1.7959650e-01
 -4.2830646e-01
  1.4470530e+00
  6.2268734e-01
  7.4252158e-02
  6.6135921e-02
  2.0962082e-01
 -1.1981927e-01
 -6.4242832e-02
  1.0692496e+00
  8.3807558e-01
  1.5499958e-02
 -1.1842360e-01
  9.3276244e-01
 -4.0244937e+00
  9.8925096e-01
 -3.5242569e-01
  1.3906450e+00
 -4.5193691e-02
  4.6647858e-02
 -1.6255825e+00
 -7.7563092e-02
 -1.4680486e+00
 -1.4309773e-01
 -5.0699022e-02
 -1.5389920e+00
  7.7979296e-02
  8.6864261e-03
 -5.7998186e-01
  2.3078217e-01
 -5.8711630e-01
 -1.7002303e-03
 -6.5403003e-01
  6.1039573e-01
 -8.4108102e-01
 -4.3667194e-02
  5.7125080e-02
 -2.7150705e+00
 -3.8192421e-02
 -1.1157049e-02
  3.3942111e-02
  1.2457984e-01
 -5.1630978e-02
 -2.9512834e-02
 -1.7682776e-01
  1.9396204e-01
 -7.1340019e-01
 -2.5222094e+00
  4.0451739e-02
  9.3030798e-01
 -8.5415518e-01
  4.5871785e-01
 -1.8262707e+00
 -7.5892442e-01
  1.2466592e-01
 -1.4051920e-02
 -4.0051591e-02
 -4.2768970e-01
  5.9342653e-02
  7.8779925e-03
 -6.5207161e-02
 -5.5743422e-02
 -3.1810116e-03
  4.9228114e-01
 -4.9720439e-01
  1.2927791e+00
 -2.2739823e+00
 -3.2007577e+00
 -8.2045162e-01
  1.4008158e+00
  4.8503809e+00
  9.9703205e-01
 -6.0630596e-01
 -1.1284401e+00
  9.1592050e-01
  1.7470409e+00
  9.3613541e-01
  1.7820570e+00
  3.2305869e-01
 -1.1007073e+00
 -3.3660247e+00
  6.7103761e-03
 -2.6971290e+00
 -2.0653395e-01
  5.9919769e-01
  1.2357484e+00
  8.8785064e-01
 -7.1074641e-01
  3.7622732e-01
 -1.7042309e-01
  8.0090381e-02
  1.7238182e+00
  2.2522097e+00
  7.0940799e-01
 -7.8189534e-01
  1.2665173e+00
 -1.7413068e-01
 -1.2558874e-01
  5.5536246e-01
  1.1191912e-02
 -1.6359688e+00
 -2.7548385e+00
  1.1041195e-02
  2.8601999e+00
 -1.2635259e-01
 -8.4123009e-01
  5.3658122e-01
 -2.1912669e-01
 -1.2878267e-01
 -1.4887687e-02
 -5.9738117e-01
  1.2285873e+00
  2.6888961e-03
 -7.2928846e-02
 -7.5985527e-01
 -8.1470436e-01
 -1.4721994e-02
 -4.3930665e-01
 -7.0754111e-01
  5.4327834e-01
  5.6835222e-01
 -1.1632261e+00
 -3.5873535e-01
  9.2402124e-01
  1.7262633e+00
 -1.3312644e+00
  5.7839900e-01
  3.6786698e-02
 -1.6878122e-01
  9.3904644e-02
  4.5157880e-01
 -1.3398635e+00
 -1.7642250e+00
 -7.3652583e-01
 -1.2066688e-02
 -5.9707006e-03
  1.5216600e+00
 -1.2607440e+00
 -1.3984407e+00
  4.0376935e-02
 -1.0197667e+00
  4.7841024e-02
  2.8533101e+00
  2.3073559e+00
 -1.0205296e-01
 -7.8964120e-01
  1.4536764e-01
  2.2277494e-01
  5.3319287e-01
  3.8414055e-01
  5.1156271e-02
  1.4193853e+00
 -1.7650794e+00
  4.0922347e-01
 -1.8177490e+00
 -7.7814795e-02
 -2.7120498e-01
  2.8656149e-01
 -4.4103912e-01
 -2.0244902e-01
  3.0722475e+00
  3.6873132e-02
  4.7737483e-02
 -1.7043620e+00
 -2.2051361e-01
  3.2479059e-02
  5.1599050e-01
  1.9550045e-01
 -1.5588533e-02
  2.7863398e+00
 -8.1484765e-01
  5.4989960e-02
 -4.9107686e-01
 -1.4113310e-01
 -8.1549786e-02
  7.2846198e-01
 -5.1183544e-02
 -1.3845608e-01
  2.9056562e-02
  1.4771718e-01
 -1.2898535e-02
  5.1170892e-01
  3.5176179e-03
 -1.3189118e-01
  3.9850712e-02
 -4.3262783e-02
  4.0783011e-03
 -1.8701844e-02
 -2.7267665e-01
  9.9055991e-03
 -3.1069387e-02
  2.2903297e-02
 -1.0590285e-01
 -1.8984886e-02
  5.6132328e-02
 -2.5418097e-01
  5.3945642e-02
  3.0063510e-02
 -3.5466667e-02
 -5.9331572e-01
 -1.5102588e+00
  6.6062964e-02
 -1.4137354e-01
  1.9281570e-02
 -1.4018891e-02
 -2.3245726e-02
 -3.0896297e-02
  9.3938969e-03
  7.1058506e-01
 -1.0177474e-01
 -9.9042064e-01
 -1.9575693e-01
  1.5790546e+00
  1.5604935e-02
 -1.4977617e+00
  4.7382540e-03
 -6.1599843e-02
 -8.7959731e-01
 -8.5529670e-02
  7.1156733e-02
 -6.9483511e-02
 -7.6735830e-03
  4.2884941e-03
 -1.4984813e-01
 -7.9757690e-02
 -9.5919214e-02
  6.5390632e-02
 -8.3650179e-02
  1.9298067e-02
  1.6259015e-02
 -1.7196053e-01
  3.8816579e-02
  6.2834300e-02
  2.4711154e-02
 -2.2123169e-02
 -8.1549518e-02
  2.7182182e-02
 -4.9855359e-02
  1.8860438e-01
 -7.4104548e-01
  8.4027395e-02
  1.0780471e-02
 -1.8294247e+00
  1.8588787e-02
 -4.6117485e-02
 -3.6008537e-02
  6.1082814e-02
 -4.9079951e-02
 -3.0735794e-01
  1.1119508e-01
  9.1275029e-02
 -1.2684283e-02
 -1.4676599e-01
 -2.4506813e-01
 -3.0138063e+00
  7.3433049e-02
  1.0165460e+00
  2.0795455e-02
  9.9491909e-02
 -1.9359130e-02
  6.1082225e-02
 -4.2474948e-02
  2.9917189e-03
  8.3605990e-02
 -8.5673288e-02
 -1.4104170e-03
  4.7199193e-02
 -6.1739042e-02
 -1.0280510e+00
 -3.2148436e-02
  1.1876634e-01
  1.9058965e-02
 -8.7177590e-02
 -2.4248620e-02
  2.1462278e-03
 -2.5958035e-02
 -9.2613615e-02
  5.9479665e-02
 -3.7182141e-02
  4.4077608e-01
 -1.1239417e+00
  5.6840354e-01
  8.3523512e-01
 -1.3461043e-01
  7.0397556e-01
  2.5577426e-01
  2.3688360e-01
 -1.1421310e-02
 -2.0819686e-02
  2.0481525e-02
 -8.0454282e-02
 -2.2687803e-03
 -1.1857502e-01
  1.1086085e-02
  2.6572376e-01
  3.8887747e-02
  1.1677572e-01
  3.3129059e-02
 -9.9123545e-02
 -5.0071530e-02
  3.5921596e-02
  4.7302701e-02
  1.1376818e+00
  5.4293180e-01
 -1.6766104e+00
  3.6430681e-01
 -3.2750592e-01
 -4.2398188e-01
  9.0442890e-01
 -1.0487677e-01
 -1.4893799e-01
  3.0088594e+00
  4.9054168e-02
 -2.0484667e+00
  7.4180764e-01
 -1.1992242e+00
 -1.3017589e-01
  1.1055952e+00
  2.9931186e-02
 -3.1121764e-01
 -5.3281453e-02
  1.7906785e-01
 -2.3969285e+00
  4.2558053e-01
 -1.3171318e-01
  6.4668089e-01
  2.2121264e-02
  3.8990077e-02
 -5.4014727e-02
  1.1683846e-01
 -8.6512668e-03
 -9.9294329e-01
  1.0365327e-03
  1.6762902e+00
 -2.0715497e+00
 -3.6252931e-01
 -1.0843091e+00
 -9.9244833e-02
  5.2926004e-01
 -5.2243475e-02
 -4.2457306e-01
  3.8971278e-01
 -1.7164791e-01
 -7.2621733e-01
  2.4065671e+00
 -1.1563665e+00
  1.3143269e+00
  8.1814444e-03
 -2.8499196e+00
  9.5189011e-01
  1.4025072e+00
 -5.0880235e-02
 -1.3219289e+00
  3.8592058e-01
 -2.7904317e+00
  2.1857536e+00
 -1.7001119e+00
 -9.7386295e-01
  3.7045076e-01
  1.2374275e+00
 -3.4888169e-01
 -1.6749562e+00
 -1.1138598e+00
 -3.4808729e+00
  1.6121026e+00
  3.5816073e-02
 -1.1944757e+00
  4.5426437e-01
  4.3902302e+00
  2.2348508e-01
  5.2872550e-01
  5.7517719e-01
 -1.1032394e+00
  6.0122335e-01
  1.4939916e-01
  1.0736747e-01
  2.5445108e+00
 -5.2154298e+00
  1.3649790e-02
  1.1456977e-01
 -1.3850082e+00
  5.7018183e-02
 -9.6604146e-02
  9.4345234e-02
 -4.8237510e-02
 -2.6099387e-01
  9.2972368e-02
  8.5984218e-01
  1.1187923e+00
 -3.6694251e-02
  7.1571670e-02
 -7.1345836e-01
  1.5768686e-02
 -1.8711668e-02
 -2.0603421e-03
 -2.5241489e-02
  6.2799208e-02
  1.1847990e+00
 -6.0979668e-03
 -9.2057735e-02
  9.1068663e-02
 -1.0559405e-01
  5.3126317e-02
  2.2134155e-02
 -2.5480244e+00
 -1.6949408e-01
 -2.6439989e-02
  6.0956072e-02
 -1.0207172e-01
  1.3333669e+00
 -4.5649968e-02
  4.7545591e-03
 -1.2142929e-01
 -1.8042295e-01
  8.6223342e-02
  3.2809069e+00
 -1.0306660e+00
  3.5612423e-02
  2.0685576e-02
 -5.4874495e-03
 -6.5526612e-02
 -2.8111380e-02
  1.1000533e-02
  9.6344069e-02
  2.6018215e-02
 -2.2641284e-02
 -3.8043443e-02
 -5.6212956e-01
 -1.3601964e+00
 -2.7982231e-02
  4.7734725e-01
  1.8336218e-02
  6.1025284e-02
 -2.3609477e-03
  1.6135931e-02
 -3.8090788e-02
 -8.5870795e-02
 -5.2395258e-02
  1.7996235e-03
 -7.5687408e-02
  1.9352880e-03
 -1.8739530e-01
  2.3136461e+00
 -4.2883316e-01
  1.5084966e+00
 -1.7841313e+00
 -8.6238727e-02
  7.9142176e-02
 -2.4381854e-01
 -8.3372837e-01
  3.0196358e-02
 -2.1670100e-01
 -1.4614508e-01
 -3.4705162e-02
 -5.8577843e-02
  2.6184177e-01
 -6.5058321e-02
  4.2514987e-02
 -1.9825795e-01
 -5.4251374e-04
  1.4372867e-01
 -1.4172372e+00
  1.7535647e+00
 -9.2220825e-01
  4.2303018e-02
  1.5904143e-01
 -8.5867003e-02
 -2.4926944e-02
  1.3754789e+00
  8.9988929e-01
 -2.2282863e+00
  1.3822680e+00
  3.8960521e+00
  8.2420290e-02
  6.6789514e-01
 -1.9889580e-02
 -1.3799418e+00
  1.2503815e-01
 -2.3814943e+00
  7.0592302e-01
  1.0260016e-01
 -2.4401720e+00
 -4.0521303e-01
 -5.7597868e-02
  7.1525180e-01
 -1.1906070e+00
 -1.4882648e-01
 -2.8527530e-02
 -1.4077869e-01
 -9.1635071e-02
 -3.3075389e-02
  3.0254178e-02
 -7.9795793e-03
  4.9353352e-01
  9.3576014e-02
 -1.6613366e-02
  1.2562325e-02
  9.5427409e-02
  1.9639211e-03
  4.0568296e-02
  1.4544545e-01
 -6.0231532e-03
 -1.0582229e-01
 -3.4224696e-02
 -6.8006091e-02
  2.3500671e+00
  4.5333323e-01
  2.8239284e-02
  1.2577236e-01
 -5.6964554e-02
 -1.6227035e-03
 -4.0662233e-02
  4.4891413e-02
 -3.5186939e-02
  1.8255559e-01
 -1.7834632e-02
  7.5395897e-02
  8.3251454e-02
 -6.4876847e-02
 -5.3467207e-02
 -3.1796175e-01
  4.6841003e-02
  8.8918865e-02
  2.5905921e+00
  2.3845285e-01
 -2.4498507e-02
  2.4316693e-02
 -2.6231810e-02
 -1.5882138e-02
  1.9975727e-02
  3.5667546e-02
  4.2556673e-02
 -1.9874826e-02
 -5.3587295e-02
  5.4969810e-02
 -5.8865853e-02
  1.8961897e+00
 -6.7679728e-03
 -1.8593831e-03
 -9.4266914e-02
  4.8360139e-02
  8.9507288e-01
  1.6214299e-01
 -1.1306753e-01
  7.0222512e-02
 -6.8998061e-02
 -2.0263407e-02
  1.9887356e-01
 -2.5671514e-02
  3.7960846e-02
 -9.7801492e-02
  1.3191402e-01
 -1.1671121e-01
 -1.8751208e-02
  2.7401727e-03
 -1.1785037e-03
  5.5592139e-03
 -6.6223303e-03
  2.8979757e-03
 -3.4167286e-02
  6.0377922e-02
  4.9892366e-02
  2.7506908e-02
  4.5098800e-02
  1.2690487e-02
 -5.0985917e-02
 -7.2541438e-02
 -1.3332989e+00
 -4.8443992e-02
 -4.8202023e-02
 -1.5472554e-02
  5.8698212e-03
  1.0688008e-01
  2.5481177e-02
  7.2605741e-01
  7.2948106e-02
  4.8378386e-02
 -8.9320064e-01
 -1.6439956e+00
 -6.9934107e-02
  3.7787430e-02
  3.2171175e-01
  8.2726002e-02
 -9.5585831e-02
  2.7973452e-01
 -4.5289523e-03
 -5.2131750e-03
 -6.0943488e-02
 -2.6078423e-02
 -7.6935644e-04
  4.4025306e-02
  1.6644211e-03
 -4.3482110e-02
  1.7214006e-02
 -5.3686197e-03
  4.3733481e-02
  6.8923831e-03
  5.9741912e-03
 -1.0155065e-01
  3.6690705e-03
  7.6780081e-01
  3.6245253e-02
  1.4054070e-02
  1.0320923e-01
 -9.7488666e-01
 -1.2803019e+00
  1.3831129e-03
  6.6474988e-03
  1.8444240e-01
  2.4827569e+00
  8.1771612e-01
 -6.0350716e-01
  5.1361036e-01
  2.9493931e-01
 -9.7781676e-01
 -1.4550178e+00
 -6.7190057e-01
  4.3338376e-01
  5.1916122e-01
 -1.1994630e+00
  5.5089378e-01
  3.6954483e-01
  3.9064872e+00
  7.9039186e-01
 -3.7417725e-01
 -5.4193723e-01
 -2.0369476e-01
  9.8850429e-01
  7.2054553e-01
  2.1796539e+00
  2.5810647e+00
 -1.1035125e+00
  4.3419930e-01
  1.8196718e+00
 -1.2670617e-01
 -2.6998818e-01
 -7.3255235e-01
  1.0339606e+00
 -1.3222761e+00
  4.5327634e-02
  9.7389388e-01
 -2.2243373e+00
  4.5730865e-01
  1.0460627e+00
  2.1218688e+00
  7.3629785e-01
 -6.9655138e-01
 -6.4926857e-01
  1.6457856e-02
 -4.8114574e-01
  3.8450245e-02
  9.4351254e-02
 -1.1132891e-01
  2.7360770e-01
  3.3605790e-01
 -1.0250175e+00
 -6.9616020e-01
 -4.2615286e-01
 -5.3593165e-01
 -4.8665118e-01
  7.6601362e-01
  2.3702104e-02
 -2.2387896e+00
 -1.1744906e-02
  4.5710023e-02
  4.3176705e-01
 -7.6100513e-02
 -1.0659467e+00
 -3.2768241e-01
 -3.2127386e-01
 -6.9115117e-02
 -7.6973510e-01
 -4.9514863e-01
 -1.3422549e+00
  1.9934088e-02
  5.9541628e-02
 -1.1791893e+00
 -1.5463103e-01
 -9.0329778e-01
 -1.1226461e+00
  9.5266843e-01
  1.7253345e+00
  3.0702460e-01
 -1.1812164e+00
  2.9092956e-02
  1.5339274e+00
 -2.5011447e-01
 -2.6519370e-01
 -8.8353325e-03
  3.9533776e-01
 -8.2561426e-02
 -2.7588880e+00
  1.7840542e+00
 -4.3619412e-01
 -2.9843748e-01
 -5.5216742e-01
 -5.9065509e-01
  1.5780362e+00
  1.9544314e+00
  9.4611907e-01
  4.4795486e-01
 -4.2150531e+00
 -9.6640205e-03
  7.0402108e-02
 -8.9479506e-01
  1.9996235e+00
 -9.1246456e-01
 -2.5411732e-02
 -2.1733034e-02
  2.9636809e-01
  1.5949720e-01
  3.6318567e-01
  2.4756875e-02
 -3.0729227e-02
  9.5553353e-02
  1.9704014e+00
  1.9802126e+00
  1.1183703e+00
  1.3721384e+00
 -7.0969700e-03
 -2.2960097e-02
  1.3984318e-01
  6.9231697e-04
 -4.2370373e-01
  7.6664694e-02
 -1.4347018e-01
 -3.8160451e-02
 -1.4808683e+00
 -1.0585827e-01
  2.2018686e-02
 -3.2193026e-01
  6.8143123e-01
 -5.8466520e-02
  4.5117790e-01
 -6.8987989e-01
  4.1269788e-01
 -1.5034188e-01
 -9.3221597e-02
 -1.4810637e-01
  4.2583489e-01
 -4.9023786e-01
  2.9132137e-01
 -2.1178427e+00
 -1.1112900e+00
 -1.9772053e-02
 -1.0692298e+00
 -3.4946615e-01
 -1.1957661e-01
  2.7443538e-03
  1.2246469e+00
  2.2613347e-02
  8.1054926e-01
 -1.7329132e-02
  2.4242337e-01
 -4.4502132e-02
 -5.9300424e-03
 -9.4581014e-03
  3.0798909e-01
 -2.2196168e-02
  3.3478206e-03
 -8.2913544e-03
 -1.9100063e-01
  5.2119564e-02
 -9.0216519e-03
  2.0543141e-02
 -7.2827256e-01
 -1.4866607e+00
 -2.0903614e+00
 -3.3233961e-01
 -6.2701088e-01
  7.2733492e-01
 -1.2840669e-02
  1.4093323e+00
 -2.0653729e+00
 -5.4266285e-02
  1.4689817e+00
  1.9127672e+00
 -1.4975246e+00
  8.1125456e-01
 -2.2023375e+00
 -7.0114108e-04
  3.3028293e+00
  1.7729182e+00
 -4.5532504e-01
  3.2136800e+00
  9.4216102e-01
 -1.5831927e+00
  1.5368283e+00
 -1.4753395e+00
 -3.1655562e-01
  7.4904434e-02
 -2.6090634e-01
 -7.2224277e-01
 -2.0259526e+00
 -1.4418032e+00
 -8.7961251e-01
  1.5124347e+00
 -1.7129085e+00
  1.0185109e+00
 -3.3800807e+00
  1.5371336e+00
 -5.1094574e-01
 -1.6903462e+00
  7.2204137e-01
 -3.9511743e+00
 -3.4456158e-01
  4.9111876e-01
  8.0286914e-01
  1.5285325e-01
 -2.2834635e-01
  1.2438143e-01
  2.1133912e-01
  9.4462156e-01
  1.4104111e-01
  8.5195061e-06
  1.1795913e+00
 -1.4713681e+00
 -9.0707485e-03
  1.4012344e+00
 -6.6648191e-01
 -1.5424674e+00
  1.3599886e+00
  2.1775246e+00
  1.1266642e+00
  1.7197844e+00
  1.8119804e+00
  8.7632197e-01
  1.4385260e+00
  4.6109432e-01
 -3.9455828e-01
  7.9907310e-01
  9.2796236e-01
 -1.7172770e-01
  2.6141636e+00
  2.0124784e+00
  2.7264900e+00
 -1.2770429e+00
  4.5545533e-01
  1.4667757e+00
 -2.4161117e-01
 -4.8265430e-01
 -2.3028445e+00
  3.0898513e-02
  4.3394798e-01
  4.8264369e-01
 -1.7459927e+00
 -2.8420730e+00
  3.2241783e-01
  4.4752929e-01
 -6.4568371e-01
  1.6724978e-01
  5.9734893e-01
  1.3682257e+00
  1.6154333e+00
  9.4805050e-01
  3.6043876e-01
  6.0474169e-01
 -2.2311714e-01
 -2.1531065e+00
 -6.2119611e-02
  9.8250228e-01
  2.1253766e-01
 -7.9347539e-01
 -1.3189235e+00
  9.1445732e-01
 -2.1886656e+00
  2.3862834e-01
 -8.9015223e-02
  1.0565602e+00
  1.5263137e-01
  1.1842950e-02
 -8.6464375e-01
  4.0186214e-01
 -9.8037970e-01
  6.4419228e-01
 -1.3247563e+00
 -2.7096329e+00
 -1.5808992e+00
  1.1780530e+00
 -9.0004390e-01
 -5.6990302e-01
  5.9446383e-02
 -3.1021483e-02
  2.0439826e-02
 -6.8679243e-01
  1.4691234e-01
 -7.2016913e-01
 -1.5010920e-01
 -2.8567053e-03
  1.8750207e+00
  3.8259292e-01
 -6.6221997e-02
  8.0714747e-03
 -1.9050150e+00
  1.1904193e+00
 -1.7599058e-01
 -2.4174049e-01
 -4.0299550e-01
  5.0144374e-01
  5.4659468e-01
  5.5299193e-01
  1.5969028e-01
  2.0623965e+00
  3.4686702e-01
  1.7768514e-01
  2.3828783e+00
  5.6692243e-02
  1.9561276e+00
 -6.7610312e-01
 -1.0056105e+00
 -2.6407713e-01
  6.9892979e-01
 -1.5229926e+00
 -7.1765995e-01
  1.6803389e+00
  1.2075615e+00
  1.4589015e+00
  5.6813747e-01
 -6.1748695e-01
 -7.6647037e-01
  3.1556644e-02
 -1.1373311e-01
  3.0379939e-01
  9.9949527e-01
  1.0454144e-02
 -4.0864158e-02
 -2.0677632e-01
  8.0468816e-01
 -9.1549438e-01
  1.3443265e+00
 -5.7370052e+00
 -1.6939200e+00
  9.1047008e-03
  5.6172234e-01
 -1.8151537e+00
  5.1195703e-02
 -7.9020995e-01
  6.4228855e-02
  1.4646803e+00
 -6.2080901e-02
 -1.1742120e-01
  1.7807485e+00
 -6.4874035e-01
 -2.2642683e-02
  9.8113197e-01
 -6.1853790e-01
 -2.6570446e+00
  2.7210076e+00
  1.6870733e+00
 -4.4445939e-02
  1.2708908e+00
  1.0963410e-01
 -1.0787721e+00
 -9.1522902e-02
 -3.5088263e-02
  1.1211492e-01
 -1.8411334e+00
  3.3410199e-02
 -1.1961964e+00
  1.2335825e-01
  1.8569679e+00
 -9.3505800e-01
 -2.3737288e+00
  6.8879664e-01
  2.3359776e+00
  1.6476895e-01
 -1.7586787e-01
 -1.8486233e-01
  1.4642041e+00
 -4.1286284e-01
 -3.4765480e+00
  2.2053489e-01
  1.0237429e-01
  7.6080954e-01
 -4.7705323e-03
  6.5838262e-02
  1.3096590e-02
  1.7056088e-01
  1.7436923e-01
 -1.6936585e-02
  7.9019271e-02
 -2.0737023e+00
  8.8096523e-01
 -3.2761246e-03
 -5.7072711e-01
  2.3731053e+00
  2.4531880e-01
  7.3647815e-01
  1.6558346e+00
  1.5965856e+00
  1.9142546e-02
  6.6168380e-01
 -1.1956665e-02
 -3.9442733e-01
  3.1865288e-02
 -3.6527658e-01
 -1.4372398e-03
 -1.1598933e-01
 -3.3225853e-02
 -7.7884215e-01
 -4.7382213e-02
 -6.4168900e-02
 -6.3152626e-02
  1.7709865e-01
 -5.4336321e-02
  3.3767051e-01
 -1.0163993e-01
 -1.3521353e+00
 -1.1925699e-01
 -1.9601034e-01
 -1.3577666e+00
  1.0923702e-01
 -2.2551717e-01
  3.6579308e-01
 -3.5614721e-02
 -4.4574235e-02
  7.3514611e-02
  4.7481824e-03
 -1.7838005e+00
 -1.2840314e+00
 -2.0096728e-03
  7.4423015e-01
 -1.0874443e+00
  4.3912716e-02
 -1.4633799e+00
  2.9145639e-02
 -2.4437360e-02
 -5.8415215e-02
 -1.0047675e+00
 -1.0200115e-02
  2.1043111e-02
 -1.4656263e-02
 -8.0635976e-03
 -3.1548504e-02
  5.0746351e-02
  6.4835751e-01
  3.3852044e-02
 -4.9249986e-01
 -2.7056071e-01
  3.4743807e+00
  3.9049120e+00
  1.0179175e+00
  5.9175789e-01
 -1.4894414e-01
  2.5329597e+00
 -3.7531711e-02
  7.8254268e-02
  4.9101049e-01
  3.6142591e-01
  3.3922058e-01
 -9.5803961e-02
  1.1296982e+00
  9.6876782e-01
 -1.1170394e+00
  1.8002543e+00
  5.3156221e-01
 -8.6925793e-01
 -9.6313387e-01
 -1.7357902e-01
  1.0314714e-01
  7.6895267e-02
 -6.7747277e-01
 -6.6865039e-01
  3.0723257e+00
  3.4255826e-01
 -3.5888627e-02
  9.5399481e-01
  3.1102106e-01
  5.8881894e-02
  3.6934526e+00
 -2.9369364e+00
  1.9049935e+00
  4.6574527e-01
  6.2751979e-02
  3.7436309e-01
 -1.6519478e-01
  7.8427857e-01
 -2.4009806e-01
 -2.6555018e+00
 -1.1211008e+00
 -3.8356815e-02
  1.0679603e+00
 -8.6777705e-01
 -2.0236306e-02
  9.8675482e-02
  9.0917997e-02
  7.3087126e-02
  9.4831083e-03
  8.6883768e-02
 -1.3215557e-01
 -1.7891270e-01
  1.2437582e-01
 -1.6048174e+00
 -1.1036781e+00
 -1.1372597e+00
 -1.8822130e+00
 -7.1716452e-01
  7.8270626e-01
 -9.3730524e-02
 -3.1260760e+00
 -2.4631498e+00
  7.7960901e-02
  1.8839946e-02
  3.2065220e-02
  7.2080776e-02
 -1.6445487e+00
 -3.7459797e-01
  2.5693890e-01
  1.8785604e+00
 -3.2267830e+00
 -3.2711574e-01
 -1.1649588e+00
 -2.7603698e-01
 -8.9819334e-02
 -4.0113482e-01
 -1.9583562e-01
 -1.0472685e-01
  1.1299380e+00
 -5.1460713e-01
 -3.5221499e-01
  3.6417744e-01
 -4.1595981e-01
  9.4134414e-01
  1.1311244e-02
  1.1515075e-01
  3.2212358e-02
  6.9694006e-01
  5.4403728e-01
 -1.2956227e-01
  1.3978679e-01
 -9.5179623e-01
 -4.7459203e-01
  1.7735006e+00
  7.6606363e-01
 -2.2485843e-01
  7.1632028e-01
  8.0353230e-01
  8.5474290e-02
 -1.0703799e+00
 -6.3320696e-01
 -1.0590160e-01
 -7.4106312e-01
 -5.5855840e-01
  1.0087714e+00
  2.4520016e+00
 -1.6751479e-01
 -4.7274679e-01
  1.9307743e+00
  7.2340417e-01
  3.2852569e-01
  1.0023338e+00
  1.2617809e+00
  3.5333253e-02
 -1.8949559e-01
 -3.9497513e-02
  1.4303625e-02
 -7.8943536e-02
  5.6831652e-01
  1.9827747e-01
 -4.6676371e-01
 -7.7438848e-03
  1.1693324e+00
 -7.4683017e-01
  1.0479748e+00
  9.8823047e-01
 -1.8229914e-01
 -3.7601003e-01
  5.1220393e-01
 -1.9300146e+00
 -6.5590101e-01
  2.0520218e-02
  1.6421956e-01
 -6.1794382e-01
  4.3838099e-01
  7.6439446e-01
 -7.4596363e-01
  1.0085347e-01
 -6.4631325e-01
  6.8166494e-01
  4.5738548e-02
 -1.5653421e+00
  1.6161306e+00
  1.0293971e-01
 -2.8509440e+00
 -6.8668765e-01
 -1.0748677e+00
 -2.6249039e-01
  4.9316940e-01
 -5.7101034e-02
  4.2914701e-01
  4.7278341e-02
 -9.2279680e-02
 -5.5574042e-01
 -2.3046586e-01
  2.3738692e-02
 -2.3812422e-01
  8.0583513e-01
 -1.0294826e+00
  1.1047916e+00
 -1.8158146e+00
  1.4175183e+00
 -1.4300857e+00
  6.0734856e-01
  1.3016931e+00
 -1.1909072e-01
  4.0179172e-01
  6.7096055e-02
 -1.2499506e-02
 -1.1011156e+00
  8.9089401e-02
 -2.2854837e-02
  6.4514177e-03
 -1.5379599e-01
  9.2381410e-02
  3.0696398e-01
 -2.8509589e-02
 -7.5347046e-03
 -5.2642100e-03
  2.6290798e-01
 -1.0863155e-01
  7.7766263e-01
 -2.8967239e-02
  6.1380446e-01
  7.0569471e-02
 -4.5146588e-02
 -2.7165067e+00
  7.6293075e-01
  7.5341433e-02
 -5.6543791e-01
 -8.7246895e-02
  3.7694871e-02
  4.8572928e-01
 -4.8455766e-01
 -3.4864079e-02
 -1.1934173e+00
 -1.0307540e+00
  1.2207738e-01
  8.6677063e-01
  6.4704269e-01
  4.0368471e-01
  2.8245056e-01
 -6.7575562e-01
 -6.6236012e-02
  9.4887456e-03
  3.3873208e-02
  4.4931263e-02
  9.2625245e-03
 -4.0174667e-02
  5.5777937e-01
  5.8693174e-02
  2.5883558e-01
 -1.3047006e+00
  9.2245203e-01
  5.0296021e-01
  1.1128323e-01
 -9.9427474e-01
  2.7159825e-01
 -2.3106773e+00
 -5.6908917e-01
  3.7876496e-01
  2.7809696e+00
  8.7860489e-01
  2.8262775e+00
  1.5972923e+00
  1.8047366e+00
 -3.3145505e-01
  2.5328003e-02
  1.9111899e+00
  2.2168992e-01
 -1.3743361e+00
 -9.1420628e-02
 -1.9448607e+00
  3.4792238e-01
  2.4029589e+00
 -9.3868672e-04
  3.3899170e-01
 -8.3835602e-01
  1.5514437e+00
 -1.0548536e-01
  3.0602577e-01
  4.8131708e-02
 -5.6078143e-02
  4.3391120e-01
 -1.0233866e+00
  1.9162591e-01
 -1.6992667e+00
 -7.8086245e-01
  7.9503095e-01
 -6.8926388e-01
 -7.8500348e-01
 -1.4851016e+00
  1.7231718e+00
  1.6585276e-01
  6.5799385e-01
 -2.7746761e+00
 -1.1651883e-01
  4.5742009e-02
 -9.0734541e-01
  7.9791170e-01
 -1.1854540e-01
 -2.9259872e-01
 -1.5441953e-01
 -6.8931693e-01
 -1.4545823e+00
 -9.0768284e-01
 -6.4499664e-01
 -2.4898474e+00
 -1.7212900e+00
 -1.8900914e+00
 -2.0695569e-01
  1.1372367e+00
  6.8437123e-01
 -8.4830862e-01
  1.7027216e-01
  7.9124793e-02
 -1.8908709e-02
 -1.0946512e-01
 -5.3830564e-01
  2.2048192e-02
 -2.1250744e+00
 -3.9928126e-01
  8.2927793e-03
  4.8702905e-01
 -9.1271788e-01
 -1.3484910e+00
  8.0234766e-01
  1.5827972e+00
 -7.9944506e-02
  1.4071559e+00
  1.9893196e+00
 -3.3465312e-03
  1.0900301e-03
  1.9403499e+00
 -2.0289383e+00
 -2.8564528e-02
 -2.2393622e-01
 -2.3362134e+00
  1.9846300e+00
 -8.8954413e-01
 -1.2281759e-01
  2.8614303e-01
  6.9263829e-03
 -1.1424298e+00
 -5.7332033e-01
  1.0601556e+00
  3.6397238e+00
 -6.9392216e-04
 -3.8639906e-01
 -5.5281639e-01
  3.1010978e-02
 -7.3415274e-03
  5.3192899e-02
 -1.1494411e-02
  5.1701598e-02
 -1.4892074e-01
  2.1477189e-02
 -7.2400589e-03
 -7.0296246e-01
 -3.4953255e-02
 -5.5208690e-02
  1.1867187e+00
 -4.8761860e-01
  3.8271807e-02
  6.4518742e-02
 -7.3282021e-01
 -1.6023171e-01
 -9.7365230e-01
  2.2478716e+00
  4.3609744e-01
  3.9119198e+00
  6.9966519e-01
  2.3690510e+00
  5.5560107e+00
 -7.2837871e-01
 -4.6037686e-01
  5.1417381e-01
  7.9068266e-02
  1.8359348e+00
  1.1599149e+00
 -5.8753632e-02
 -2.8900900e+00
 -5.5909395e-01
 -1.4502130e-01
  4.4046366e-01
  1.5248147e+00
 -1.5817583e+00
  1.3631539e-01
  1.9232098e-02
  1.1384031e+00
 -6.2216914e-01
  1.6262572e+00
  6.8922585e-01
 -2.4994674e+00
  6.8650521e-02
  2.1227768e-02
  1.1167636e+00
  7.4361771e-02
  9.7763374e-02
  2.8425531e+00
  8.9131874e-01
  1.3314568e-01
 -7.4417904e-02
 -2.8919537e+00
  1.9945329e+00
 -3.1176701e-01
  1.4976736e+00
  3.5501757e-01
  9.1368342e-03
 -1.7439699e+00
 -2.4582231e+00
  8.3500281e-02
 -2.4620008e-01
  1.3668023e-01
  9.4964854e-02
  1.3516468e-01
  8.6587869e-02
  1.8629724e-02
 -8.7095320e-01
  5.4145870e-03
  4.1859716e-01
  4.1505843e-02
  5.2943874e-02
 -1.0099410e+00
 -4.3146111e-02
  5.3752689e-03
 -3.1400749e-03
 -6.8485677e-02
  1.2046756e+00
 -5.7649467e-02
 -3.0191749e-02
  2.6942885e-02
  3.1561617e-02
 -3.9817527e-02
 -8.7291308e-02
 -1.4456800e-02
 -1.4747392e-01
 -1.2112691e-01
 -1.0165637e-02
 -2.2775460e-02
  3.0911284e-02
 -1.0168687e-02
 -2.2168178e-02
  5.9011526e-02
  1.7483357e-01
  2.7417592e-03
 -8.6118262e-06
  3.1751387e-02
  6.6882536e-02
  6.3865885e-02
  1.5563898e+00
 -1.4785923e-01
 -9.8238178e-03
 -1.7810425e-02
  1.3124159e-01
  9.6154688e-03
  1.9347407e-02
  1.2256262e-01
 -1.4156131e-01
 -1.0550310e-01
 -9.2721008e-02
  9.3627959e-02
 -1.2600292e-01
  5.3824399e-02
 -7.1454346e-02
  3.0759582e-02
 -5.0370693e-01
 -2.4876302e-02
  3.8882703e-02
  5.7205850e-01
  1.0136323e+00
  1.3740663e-01
 -1.4110109e-01
 -2.9561608e+00
 -4.3019310e-01
 -4.6195267e-03
  1.2152897e+00
 -1.8288802e-01
 -1.6409930e-02
  7.0655781e-01
  3.7148249e-01
 -2.0770347e-01
  7.8466505e-01
  2.6156469e-03
  1.4518145e-02
 -8.3063401e-02
 -8.8926339e-01
  1.6655262e-01
  7.6952171e-01
  4.9538326e-02
  6.1271030e-02
 -4.0042032e-02
  3.4760898e-01
 -2.0549339e-01
  4.1559623e-03
 -3.0946381e-02
  8.4123112e-02
 -1.9675571e-01
 -1.2459843e-01
 -3.0124468e-01
 -3.2662299e-01
  1.6217837e+00
 -2.3907555e-02
 -1.4120081e-01
 -1.1524650e-02
 -1.5889376e+00
  1.8055472e-01
 -1.0714056e-01
  2.2876017e+00
  1.7069073e+00
  7.7870631e-01
  1.3274051e-01
 -2.4973950e-01
  1.5350018e-02
  8.7000087e-02
 -1.7743455e-01
  1.9617307e-01
 -9.5372200e-02
 -4.9245011e-02
  7.3412359e-02
 -6.8385202e-01
 -1.0992368e-02
 -1.9456924e+00
 -9.1995552e-02
  1.5286485e+00
 -2.1359479e-01
  3.7763558e-02
 -1.0111818e+00
  7.3912412e-02
  4.6778724e-01
  3.9532028e-02
 -1.1785372e-01
  1.1397400e+00
 -3.5464668e-01
 -5.7135302e-01
  1.7833577e-02
 -3.7886668e-02
  6.9491625e-02
  1.7365138e-01
  1.7929230e+00
  1.7155137e-02
  1.6986238e+00
  7.7580082e-01
  2.5091728e-02
  2.6654105e+00
 -6.4510596e-01
 -2.2455184e+00
  5.7217258e-01
 -1.2795661e-01
  3.1423217e-01
  2.3355079e+00
 -1.9678018e+00
 -5.0889249e-03
 -6.9924422e-02
  1.1817658e+00
 -1.9499311e-02
 -3.5038478e+00
 -7.6409794e-02
 -5.0606877e-02
  1.3749529e+00
  5.3364259e-01
 -1.3790137e-01
  1.0884818e-01
 -1.2544196e+00
 -6.1360443e-01
  4.5421597e-01
 -3.4011692e-01
 -3.6855688e-04
  6.4846568e-02
  2.0948915e-02
  6.7702401e-03
  4.2442556e-02
  5.1180080e-02
  5.3334814e-02
 -1.6475700e-02
 -3.6030702e-02
 -1.2152185e+00
  1.6679778e+00
 -5.2562821e-01
  6.6716976e-02
 -3.4688350e-02
 -1.3897283e+00
 -3.0293414e-02
 -7.9031432e-01
  2.0024925e-03
  4.7032890e+00
  1.7587486e-01
  1.3801138e-01
 -2.3767183e-02
  2.6123175e-01
 -1.7665708e-01
 -2.7460982e-03
  1.5072256e-01
 -5.9775587e-02
 -3.3656906e-02
  7.4090379e-01
  1.9104356e-02
  1.4024612e-02
  1.4690240e-02
  3.2086393e-03
  2.5654153e-04
  5.2216412e-03
 -1.9207461e-02
  3.1798493e-02
  9.6426755e-01
 -1.4025064e-01
  7.9585546e-01
  1.2139634e-01
 -1.2183778e+00
  1.9761276e+00
 -4.7278088e-02
  4.0820654e-02
  8.1322178e-02
 -5.9686162e-02
 -6.0268242e-02
 -3.2095585e-02
  2.7613103e-02
  2.9476203e-02
 -6.7569956e-02
 -4.6103075e-02
 -8.7863933e-03
 -6.4177155e-01
 -9.0479385e-03
 -2.0056203e-01
  4.2527158e-02
  8.2466811e-02
 -3.8342547e-02
  1.1783461e-02
 -7.0895225e-02
 -7.7058606e-02
 -2.1176136e+00
 -3.1633937e-01
 -5.1406908e-01
 -1.7336223e+00
  8.7613523e-01
 -1.9130999e+00
  6.8013883e-01
 -2.9025793e+00
 -6.6013956e-01
 -1.5733140e+00
 -6.8703979e-02
 -9.8413622e-01
 -2.8853276e-01
 -2.2093575e+00
 -5.8153950e-02
  1.7715130e+00
 -9.1019109e-02
 -3.1881776e-01
  7.6907217e-03
  2.5652984e-01
  1.0556793e+00
 -1.9719048e+00
  8.2519747e-02
  6.7710042e-01
 -2.9920452e+00
 -1.4249065e+00
  2.2573197e+00
  2.8113356e+00
 -1.1172562e+00
 -1.7883412e+00
  1.1945672e+00
  2.7204955e+00
 -1.9484764e+00
  2.9127505e+00
  8.9084435e-01
 -4.4382110e-01
  1.8793596e+00
  1.7632644e+00
  2.4204910e-01
  4.0837817e-02
  8.7625484e+00
  1.9855788e+00
  8.4353268e-02
  3.7479833e-01
 -2.7747717e+00
 -1.4279006e-01
 -3.9184150e-01
 -1.8841775e-01
 -7.1283646e-02
 -4.1581297e-01
  9.7643876e-01
 -2.9394040e-01
 -1.4156512e+00
  3.5551660e+00
  2.6804179e-01
 -1.1070727e+00
 -3.4690688e+00
 -8.6021580e-02
 -1.7633028e+00
  2.4872956e+00
  1.8686695e-01
  7.8041464e-01
 -1.0855597e+00
 -6.5802865e-02
  5.7892159e-02
 -2.0005479e-01
 -1.6407083e-01
  3.7611164e-02
  2.8833941e-01
  4.1095756e-02
  4.2099285e-01
 -1.0879847e-01
  7.8666502e-01
  3.0496526e-01
  1.3200057e+00
  1.0711137e+00
 -3.0056849e-02
  9.9220034e-04
 -1.3860339e-01
  2.9124740e-01
  6.1693579e-01
 -8.2422808e-02
  1.7168742e-01
  7.9584146e-01
 -1.0377283e-01
  1.2790796e-01
  2.8600696e-01
  1.0365502e+00
  8.2561292e-02
  1.6887495e-01
 -3.2950655e-02
  4.2831723e-02
  9.0033287e-01
 -1.2950754e-02
 -4.0307203e-01
  9.1138136e-01
  4.9378693e-02
  2.4098668e-01
  4.0897964e-03
  2.9734757e-02
  2.6064970e+00
 -4.0878341e-02
 -7.0727013e-02
  4.2677560e-01
 -4.5818886e-01
  9.4837034e-03
  7.7819802e-02
 -8.8527396e-02
  1.0972787e+00
 -2.5635958e+00
 -3.7582788e-01
 -1.9626410e+00
 -5.6269579e-03
 -4.0175217e-01
 -7.9469669e-01
 -7.4803686e-01
 -1.2580967e+00
  1.7344815e-01
 -5.7444131e-01
  4.9811649e+00
  6.6095211e-02
 -3.1032890e-02
 -4.8655572e+00
 -1.4948710e+00
  1.1386000e+00
  1.9109499e-02
 -3.8357151e-01
  1.4961431e+00
 -7.3842013e-01
  2.2843060e+00
  1.1657376e+00
 -1.6448010e+00
 -9.9260014e-01
 -1.8026631e-01
 -2.1347513e+00
 -2.5017834e+00
 -2.9727292e+00
 -3.3601698e-01
 -1.9203845e+00
  7.4827057e-01
 -8.0704635e-01
 -2.4558252e-01
  1.2623374e+00
 -3.6953899e-01
  4.0892190e-01
 -2.1004622e+00
 -1.7511818e+00
  1.5402398e+00
 -5.3563552e+00
 -9.9826455e-01
  3.5682671e+00
 -1.6339555e-01
  7.9042274e-01
 -9.5437706e-02
  3.6931551e-01
 -1.2458113e-01
 -1.0165837e+00
  4.9653330e-01
 -2.9820177e-01
 -4.6215820e-01
 -7.6506966e-01
  3.7955651e+00
 -3.1771002e+00
  4.8311183e-01
 -1.3631898e+00
 -5.4901445e-01
  1.6900858e-01
 -3.8405174e-01
 -1.7923155e+00
 -1.2024201e+00
  7.9994768e-01
  1.3671562e-01
 -5.7535094e-01
 -1.3510203e+00
 -3.8971946e+00
 -2.1295743e+00
 -1.7273029e+00
  9.1392654e-01
  2.8991349e+00
  4.6511526e+00
  8.8586427e-02
 -8.9655556e-02
 -3.2288408e+00
 -4.0843141e-01
  1.2926364e+00
 -1.1006466e+00
 -1.4991812e+00
  3.2903451e-01
  1.3228483e-01
 -2.0138705e+00
 -6.3559777e-01
 -1.6841899e-01
 -2.6389903e-01
 -1.3311725e+00
 -9.2857993e-01
  1.4376817e+00
  1.6884259e+00
 -2.6969497e+00
  6.4142418e-01
 -6.2526786e-01
  8.8732612e-01
  3.7665781e-01
  2.0971010e+00
 -4.2443982e-01
  7.8391105e-02
  1.9531633e-01
  1.4293760e-01
 -7.6083183e-02
 -1.3301197e+00
  2.9615054e-02
 -4.3882965e-03
  2.5483627e+00
  3.0172048e+00
 -3.0163903e-02
  2.0313554e+00
  2.2335317e+00
  8.2602017e-02
  1.5869007e-01
  2.8261101e-01
 -1.0458757e+00
  6.6762537e-01
  1.1736183e+00
  6.6239780e-01
  3.9740384e-01
 -2.2699898e-02
 -1.9758949e+00
 -9.6788816e-02
 -2.0794606e+00
  1.2909065e+00
 -1.1707518e+00
  1.2746671e+00
 -7.9426676e-01
 -9.1938518e-02
 -9.0391177e-01
 -1.0623481e+00
  4.1092259e-01
 -8.1295681e-01
  1.3747815e+00
 -6.4487565e-01
  3.5015020e-01
  1.6514279e-02
  1.2643918e-01
  1.6213179e+00
  1.6804950e+00
  8.8828671e-01
  1.3451093e+00
  1.1983024e+00
  2.8749511e+00
  1.5406926e+00
  5.8564376e-02
 -8.4794456e-01
 -5.7502961e-01
 -4.4204080e-01
  6.0666084e-02
 -1.9217202e-01
 -5.4778196e-02
  1.4879994e+00
  3.5632020e-01
  4.6640825e-01
 -8.1422883e-01
  4.2484307e-01
 -2.2694280e+00
 -2.2025290e-01
 -5.0161262e+00
 -8.7061385e-03
 -6.2065607e-01
  1.2121603e+00
  7.2484601e-01
 -4.1663292e-01
 -2.7100093e+00
 -8.8812329e-02
  5.1596820e-01
 -5.6655604e-01
  7.4489400e-02
  5.3567111e-01
  1.5893441e+00
  2.8627050e-01
 -1.5326221e-01
  4.4282015e-02
 -5.6564562e-02
 -2.4015198e-02
 -2.8409556e-02
  5.1449770e-03
  1.0719596e-02
  3.0100431e-02
 -3.0516390e-02
 -5.1549876e-01
 -2.5323057e-03
  4.2760170e-01
 -1.2394655e-01
  4.3450713e-02
  4.3150090e-02
  1.5405545e-01
 -9.9999920e-02
 -5.2484006e-02
 -1.3244571e-01
 -1.9679569e-01
 -2.0568483e-01
 -4.8691105e-02
  2.6984166e-02
  6.1632073e-03
 -6.9104090e-02
 -9.2714868e-02
  1.5353866e-01
  1.6812269e-03
 -1.2386674e-02
 -9.8565899e-02
 -1.6244654e-01
 -2.5575657e-03
 -1.7412328e+00
 -1.2593794e+00
  1.0538214e-03
  1.0455130e-01
 -1.3935292e-01
 -3.0126637e-02
  6.7965433e-02
 -1.1885139e-03
  5.5901967e-02
 -1.1874450e-02
  6.9094691e-03
 -5.7183676e+00
  2.0719999e-02
 -1.1090408e-01
 -8.8778712e-02
  2.5862596e+00
 -1.5165732e+00
  2.3200378e+00
  9.6513140e-01
  1.0084702e+00
  3.5874990e-01
 -1.8405675e+00
  3.1630203e-01
 -7.9259378e-01
 -6.1387005e-03
 -5.1768698e-02
  5.8652490e-01
 -6.5867953e-02
 -2.1507735e+00
  4.5186281e-01
 -2.9777208e-01
 -4.3028051e-01
  2.4844497e-02
  4.1417722e-02
  2.0624666e+00
  2.8381777e+00
  6.4243861e-02
  1.1342180e+00
  5.4299754e-01
 -1.6727399e+00
 -6.4046568e-01
 -1.1507581e+00
  1.2420367e-01
  3.2406025e+00
 -1.9214417e-01
  1.0561062e-03
 -6.4232486e-01
 -7.0664269e-01
 -1.0849255e+00
 -1.7114322e-01
 -1.8272750e+00
 -5.0643343e-03
  7.4799585e-01
 -1.0236291e+00
  2.9857412e-01
  3.4074824e-02
 -2.2146287e+00
 -2.1755228e-02
 -8.5792899e-01
  5.1519078e-01
 -2.4261381e-05
  5.7858741e-01
 -5.7614677e-02
  6.8346284e-02
 -1.5506862e+00
  2.4344133e-02
 -1.0694764e-01
  3.0860193e-02
 -1.8398076e+00
  2.6935417e-02
 -7.4503493e-01
 -2.9953005e+00
 -2.6525883e-02
  3.3545613e-02
 -5.9344649e-02
 -1.3411632e+00
  1.8925844e-01
 -1.4787035e-01
  1.1754830e-02
 -3.5037920e-02
 -2.3563966e-02
  3.4073715e-03
  4.9844224e-02
 -4.7216423e-02
  1.4012654e-01
 -1.7408656e-02
 -7.6383121e-02
 -2.3075274e-01
  6.3724145e-02
 -7.9318127e-03
 -6.4190820e-02
 -5.2164041e-04
  4.1692533e-02
  3.4897453e-01
 -2.1688995e-01
  6.6455297e-02
 -1.0459715e-03
 -7.0412025e-02
  9.4696088e-03
  9.2354529e-02
  4.0090254e-01
 -4.6826606e-03
  2.9145768e-02
 -8.0272235e-02
 -1.3332301e-01
 -4.8801899e-02
 -1.7287061e-01
  5.6034308e-02
 -2.0765586e-01
  1.0274744e-02
 -8.0853365e-03
 -3.7404692e-01
  7.9077646e-02
  8.6237146e-03
 -2.8856128e-02
 -6.4368851e-02
 -4.1728854e-01
  4.7313958e-02
  6.0145967e-02
 -5.6690786e-02
  7.8707322e-02
  3.1333896e-03
 -1.3658675e-02
  3.2449307e+00
  6.5617733e-02
 -2.6446956e-01
 -3.5176951e-02
 -2.1558471e+00
  9.8498923e-01
  4.8720723e-01
 -2.6983058e-01
 -1.2054616e+00
 -3.1745218e-02
  3.6676697e-02
 -5.2863304e-02
 -3.8556921e+00
  5.7919063e-02
 -6.2636496e-03
 -6.8730235e-02
  1.1742736e+00
  1.2792093e-01
  7.0639022e-02
  9.8922473e-01
 -2.5362883e-02
  2.3204385e-01
  1.2657763e-01
  6.7506082e-02
  5.5270666e-01
 -4.3330602e-02
  6.3329947e-01
  3.0973873e-01
  1.3465009e+00
  4.9484035e-01
  6.4476006e-02
  6.3683361e-02
  1.4613929e-02
 -2.5143450e-01
  2.6958758e-02
  5.8176816e-01
  6.1250252e-01
  9.7953916e-01
  4.7608409e+00
  1.3184170e-01
  1.8331587e-01
  8.0001302e-02
 -5.7070976e-01
  4.9160440e-02
 -6.8634205e-02
 -7.6584704e-02
 -4.4809647e-02
 -1.5783818e-01
 -7.9400867e-02
 -2.0143595e-02
  3.3392638e-02
 -3.3427011e-03
  5.6999755e-01
  1.1363277e-03
 -1.8582149e+00
  2.1828663e+00
  6.6536993e-01
 -1.2041093e+00
 -7.0955557e-01
  1.4859689e-03
 -6.4228141e-01
 -4.8885170e-01
  1.9381157e+00
 -1.3247058e-01
 -2.2185434e-01
 -9.1832072e-02
  1.3221228e-02
  9.4784367e-01
 -9.2468011e-01
 -4.7123164e-01
 -1.6447775e+00
  3.1501374e-01
 -2.9720253e-01
 -1.0927572e+00
  1.1038420e-01
  9.1418605e-03
 -3.2368232e-02
  6.4438365e-02
 -6.7921996e-01
 -2.2413092e+00
  9.2075396e-01
  2.3760474e+00
 -6.2486708e-01
 -1.0451350e+00
  7.3021585e-01
 -2.5695539e+00
  9.5412123e-01
 -4.8774615e-01
 -6.4911669e-01
  1.0808891e+00
 -5.4094713e-02
  1.4685336e-01
  5.6466490e-01
  9.0111840e-01
 -6.4765915e-02
  8.0584484e-01
 -5.2078054e-03
  2.5047740e-01
  1.2950581e+00
 -1.3550484e-01
 -1.3476768e+00
  3.0587703e-01
 -4.8665769e-02
 -1.7484181e+00
  5.1369589e-02
 -1.2529375e-01
  7.0549436e-02
  4.2469315e-02
 -5.9238290e-03
 -4.8303455e-02
  2.3233587e-01
 -3.4498073e-02
  2.7688244e-02
  6.8272747e-02
 -1.2067652e+00
 -1.9717040e-03
 -1.4359562e-01
 -2.6373161e-02
 -3.1502617e-03
  5.9372825e-03
 -1.8361457e-02
 -2.6367348e-02
  7.7205943e-03
 -9.5364399e-02
  1.1824924e-01
  8.0882646e-02
 -4.7745690e-02
 -1.7357476e+00
 -1.0056385e-01
 -6.5374710e-02
  5.6151706e-03
  1.7088297e-01
 -5.7059772e-02
  2.9199868e-02
  7.5563428e-04
  8.2333209e-03
 -5.4408051e-02
 -1.0546103e-01
  1.3838280e+00
  3.3790197e-02
  7.2314821e-02
 -5.1917035e-02
  4.6154268e-02
 -1.1842680e+00
  1.8299164e-01
  4.8189438e-03
 -2.5502869e-03
 -3.5487427e-03
  1.2531641e-01
  2.0104231e-01
 -1.3058456e+00
 -9.6773803e-02
 -1.0141425e+00
 -4.4495627e-02
  8.9876667e-02
  7.1943566e-02
 -9.9594906e-02
  3.8977288e-02
 -4.1478638e-02
 -2.1813812e-03
  6.1261761e-03
 -5.2846582e-03
 -1.3825920e+00
 -1.0544467e+00
  9.5692849e-01
 -5.2068722e-02
  1.1160573e+00
  3.6805105e-01
  3.3175969e-01
  1.1428416e+00
  9.7599417e-01
 -5.5179167e-01
 -1.1440150e-01
  4.0628543e-01
 -2.5617557e+00
 -3.9602235e-02
 -2.0511372e+00
  1.2838939e+00
 -8.4134656e-01
  3.6019750e-02
  9.5266990e-02
 -1.6718863e+00
 -1.4931078e+00
 -1.3421800e+00
 -2.0549891e+00
 -1.0219985e+00
 -1.5051003e-01
  6.2758380e-01
 -1.1906206e-02
  1.4359797e-02
  5.4574358e-01
 -8.4871143e-01
 -1.5691704e+00
 -7.5229216e-01
  9.0426743e-01
  3.0609757e-01
 -1.9462429e+00
 -4.2311200e-01
  5.8572244e-02
  6.8466479e-01
 -1.6495478e-01
 -2.7122745e-01
  6.7929292e-01
 -1.4286160e-01
 -5.8631241e-01
  5.6501344e-02
  1.5889620e+00
  9.4424896e-02
  1.9821972e+00
  1.2914683e+00
  7.8079516e-01
  7.1100302e-02
 -1.1747227e+00
  3.8016436e-01
 -2.9170174e-02
  9.0110481e-02
 -1.0023800e+00
 -2.1234868e-01
 -1.3707330e+00
  3.1447036e+00
 -1.2517074e+00
 -2.0351722e+00
  4.9210036e-01
 -7.0779639e-01
 -2.6779661e-01
 -3.5527813e-01
  2.5663212e-01
 -9.0274125e-02
 -3.6919665e+00
  4.0842837e-01
 -1.7222172e+00
  3.2914760e+00
  2.0175462e+00
 -1.3833392e+00
  8.9788683e-02
 -3.2788816e-01
 -2.3126304e+00
  7.4311328e-01
 -1.0965077e+00
  6.2330270e-01
 -4.4982035e-02
  1.0711471e+00
  4.1904989e-01
  2.8976374e+00
 -4.0666652e-01
  4.9997799e-02
 -1.4156398e-02
  1.9952466e+00
  2.2088046e+00
 -1.4739540e-02
  1.5569022e+00
 -7.2634774e-01
 -1.6904531e-01
  3.4200400e-01
  2.4561558e+00
  2.0451686e+00
 -8.5237598e-01
  5.2831554e-01
 -2.4421191e+00
  4.8585896e+00
 -1.5735598e+00
  4.1968811e-02
  7.0836371e-01
  2.1144474e-01
  8.6473107e-01
  1.1658661e-02
 -1.7275484e-01
  7.6471382e-01
 -8.8639952e-02
  1.0780787e+00
  3.3076259e-01
  2.6013675e-01
  1.4996270e+00
 -8.5743511e-01
 -4.2336962e-01
  6.1994052e-01
 -1.2809404e+00
  1.1797519e+00
 -1.7580125e+00
 -9.8631799e-01
  3.3630276e-01
 -1.3408034e-01
 -1.5490250e-01
 -3.5216808e-01
 -3.0324306e-02
 -2.3020449e+00
 -1.3313295e-01
  6.8231040e-01
  8.6580567e-02
 -3.1512624e-01
  6.2226522e-01
 -2.7910643e+00
  1.5050562e-01
 -1.3600639e+00
  1.0523593e+00
 -1.1752270e-02
 -7.2347206e-01
  1.3124694e+00
 -7.6389939e-01
  4.6293393e-01
  2.7996138e-01
  3.3431880e-02
 -3.0543107e-01
 -5.5006605e-02
  2.1672478e-01
 -1.7095221e+00
  4.3554630e+00
 -4.0124655e-01
 -2.4213665e+00
 -1.3040274e+00
  1.3698205e-01
 -2.8120002e-01
 -1.0631300e+00
  1.0934639e-01
  6.0409659e-01
 -1.0283464e-01
  8.3987451e-01
 -3.3712885e+00
 -9.7408295e-01
 -7.8746337e-01
  1.0576932e+00
 -1.5210952e+00
  1.3179946e+00
  7.7423388e-01
 -8.2726079e-01
  7.2712141e-01
 -1.6520334e+00
 -1.8012557e+00
 -3.5241547e+00
 -4.2124948e-01
 -2.3097346e+00
  2.0555706e-01
 -2.2631936e+00
  1.7533466e-01
  1.5572572e+00
 -2.1011546e-01
  9.8626308e-02
  1.6523101e+00
 -1.0476518e-01
 -5.9019184e-01
 -7.3621891e-02
  3.6685175e-01
  3.2198995e-02
  3.9810464e-01
 -1.8889464e+00
  1.7288689e-01
  1.4006313e+00
 -6.6834950e-01
  2.1900639e-01
  1.3408560e+00
  1.8287003e+00
  1.3151436e-01
  1.9108386e-01
 -1.2383705e+00
  7.8333801e-01
 -3.3334222e+00
 -1.0685557e+00
  1.4814739e+00
 -8.7156707e-01
 -2.5033121e+00
  1.1172005e-01
  1.1736654e+00
 -4.0992475e+00
  1.9035420e+00
 -1.1369199e+00
  1.1737274e+00
  1.7354679e-01
 -1.5031286e+00
  9.6906048e-01
 -2.3321936e-01
  4.6069652e-02
  2.0521364e+00
  2.6318727e+00
 -1.7731450e-02
 -3.1454965e-01
  4.7036150e-01
 -6.1711460e-01
  1.3443781e-01
 -4.8205394e-01
 -3.0041230e-01
 -1.2109680e+00
 -7.3846269e-01
  1.0862617e+00
 -1.0442343e+00
  1.9331733e+00
  3.4368201e-03
  2.4441274e-01
  8.0354154e-02
  3.8938050e-03
  3.3661686e-02
  5.9859373e-02
 -4.8315309e-02
 -9.9531129e-02
 -1.2101491e-01
 -5.0104815e-01
  5.4574594e-02
 -2.1297155e-01
 -4.8600618e-02
 -4.1841663e-02
 -6.0194701e-01
  7.4172928e-03
 -1.1939901e-01
  4.6880372e-02
  4.4411895e-01
  3.6876779e-02
  1.9253244e-03
 -1.8732931e-01
  1.0371052e-01
 -2.4513498e-01
 -2.0856403e-02
 -1.4904047e+00
 -3.5816532e-01
  6.5623259e-04
 -1.3443325e-01
 -1.8228635e-02
  1.3911600e-01
 -9.9518493e-02
 -6.1924085e-02
 -4.7436323e-02
 -9.0014881e-01
 -6.4074837e-02
 -3.1057788e-02
 -1.3204646e+00
 -1.3067755e-01
  1.3434354e+00
 -8.8209815e-02
  5.6331852e-03
  1.1032709e-01
 -8.0655336e-02
  8.6466491e-02
 -7.8206532e-02
  2.0853767e+00
 -8.4992677e-02
  9.3346912e-01
  1.8521844e-01
  1.5165924e+00
  6.5081495e-01
 -1.9787554e-01
 -6.6868645e-01
 -1.2824678e-01
  9.9061537e-01
  4.0882032e-02
 -2.4416320e+00
 -2.8946573e-02
  1.3109829e+00
  1.4749442e+00
  1.2403627e-01
  3.0503147e+00
 -1.3298801e+00
  2.7833264e+00
 -9.1076523e-01
  2.0495176e+00
  4.5763832e-02
  1.3340501e+00
 -1.2674266e-01
  6.2251860e-01
  2.1559775e-01
 -1.0308232e+00
  7.9262561e-01
  2.3391421e+00
 -9.6327031e-01
 -1.3620356e+00
  1.1246321e+00
  1.0213987e+00
  6.5316653e-01
  4.7120619e-01
  2.6844966e-01
  2.7123901e-01
  1.4662839e-01
  2.2942063e-01
 -1.0158160e-01
  8.8974923e-01
 -2.0745764e+00
 -8.9231348e-01
 -4.5041236e-01
 -7.7984416e-01
  5.2187443e-01
  7.4266618e-01
 -2.6404867e+00
  3.7247390e-01
 -1.5555909e+00
  3.1441024e-01
 -1.5397645e+00
  1.7260568e+00
 -1.7117324e+00
 -1.2277024e+00
  8.3825028e-01
 -8.9771211e-01
  7.7368045e-01
 -3.8895636e+00
 -7.7238339e-01
 -1.4680439e+00
 -1.2358274e+00
  1.6141609e+00
  2.5735024e-01
  6.6499305e-01
  1.0363119e+00
  4.2918048e+00
 -2.5631834e-03
 -3.5035622e-01
 -1.5174932e+00
 -1.9006308e+00
 -1.3078394e-02
  1.2524871e+00
 -5.4641658e-01
  3.7607342e-01
  8.8013839e-03
 -1.8246253e+00
  1.0304954e+00
 -3.0915353e+00
 -3.3643308e-01
  1.0857019e+00
  4.2045107e-01
 -2.2413671e+00
 -2.5372129e-02
  6.1014831e-02
 -2.1787944e+00
  3.1000296e-02
 -1.0428854e+00
  1.8084275e+00
 -2.2336738e-02
 -3.5625527e+00
 -3.1681827e-01
 -8.5863419e-02
 -1.0968782e+00
 -1.0743384e+00
 -1.4340109e+00
 -1.3511127e+00
 -2.6417550e-02
 -3.7340939e-01
  1.2451681e+00
 -2.4425274e-01
 -2.6590806e-01
  1.0444483e+00
  1.7239712e+00
  4.0194755e+00
 -4.5025048e-01
 -1.0096854e+00
 -1.4663788e+00
  1.1145982e+00
 -2.3704706e-01
  1.3856803e+00
  5.8382921e-02
  2.6748192e-02
 -6.8504238e-01
  1.9796293e+00
  3.3826656e+00
 -7.4848926e-01
 -1.2615188e+00
 -1.7241720e+00
  8.7578833e-01
 -3.2678788e+00
  2.1624420e+00
  2.7459896e-01
  7.9973644e-01
  2.8520182e-01
 -6.2024452e-02
 -6.0786092e-01
 -7.2211891e-01
 -4.4141525e-01
  5.2100241e-01
  3.8081336e-01
 -9.7635281e-01
  7.6446921e-01
 -2.1755953e+00
  1.5410658e+00
  1.4991640e+00
 -5.3215998e-01
 -7.3667270e-01
  2.3661172e+00
  1.4428414e+00
  2.2860231e+00
 -5.7882106e-01
 -2.6579976e-01
  2.6389396e-02
 -8.0802274e-01
 -2.7809396e-01
  2.3870647e+00
  6.5472263e-01
  2.1099360e+00
  6.9139099e-01
  8.8536620e-01
 -1.7079070e-01
 -2.3037949e+00
 -1.4069794e+00
  2.2057325e-01
 -9.2024398e-01
  1.3660830e+00
 -5.7913387e-01
  1.6030807e+00
  4.0475598e-01
  8.4699941e-01
  2.7821970e-01
  3.5460371e-01
 -4.2952269e-01
  9.6972948e-01
  1.2015715e+00
 -1.2887323e-01
 -8.6111259e-01
 -1.4047603e-01
  2.2684343e-01
 -2.1964137e-01
  2.0613967e-01
 -5.1537782e-01
  6.8872833e-01
  2.1271248e-01
  4.6276021e-01
 -6.0777950e-01
 -1.2186016e+00
 -2.8871706e-01
  7.1235639e-01
 -3.5720655e-01
  7.3985302e-01
  7.9530662e-01
  9.5112227e-02
  4.8803303e-01
  1.7520359e+00
  5.0357527e-01
 -3.7425574e-02
  9.6765578e-01
 -1.6598879e-01
  1.8607467e-01
  2.2443829e-01
 -7.5340047e-02
  1.1354663e+00
  5.4185510e-01
 -7.2149730e-01
  1.0133137e+00
  9.8644763e-02
  9.7197247e-01
 -1.4915285e-01
  2.1999653e-01
  1.8614616e-02
 -5.5888879e-01
 -1.4601129e+00
  7.3820502e-01
  3.2959262e-01
  7.1017337e-01
  9.5317107e-01
  1.2491167e+00
  3.8888824e+00
 -1.2335439e+00
  1.2878667e+00
 -1.2937850e-01
 -2.8047667e+00
  2.0027211e-01
  1.1764622e+00
 -9.4838515e-02
  3.2766020e+00
  1.7857322e+00
  8.1470132e-01
 -1.4052302e+00
 -1.5970902e+00
  2.5873587e-01
 -8.9146847e-01
  2.6754946e-03
 -5.2834612e-01
 -1.0176158e+00
 -1.2636028e-01
  2.7710393e-01
 -7.1921116e-01
 -3.5382462e+00
  7.2804749e-01
 -1.3596110e+00
 -1.6610610e-01
  2.8783932e+00
 -3.7709433e-01
  1.3708067e-01
 -8.7886676e-02
 -2.7266225e-01
 -1.0308371e+00
 -1.9718571e+00
 -7.0955318e-01
 -6.9902137e-02
 -1.0780041e+00
 -9.7047365e-01
 -2.8805324e-01
 -1.5283427e-01
 -4.1818511e-02
 -3.6138631e-02
  2.2516437e+00
 -2.8420603e-01
 -1.5362000e-01
 -9.1893613e-01
 -6.3837606e-01
  2.1828136e+00
 -1.0399133e+00
  5.8760995e-01
  3.0211678e+00
  2.3243878e+00
  1.0344372e+00
  2.8297842e-01
  1.2776190e+00
  2.0868516e-01
  1.1635238e-01
  1.9147995e-01
 -2.5814742e-01
 -2.4775877e+00
  2.4732766e-01
 -7.7383883e-02
  2.2385348e-01
  6.8998474e-01
  8.1449628e-01
 -3.5661882e-01
 -1.4038330e-01
 -2.3087017e-01
 -2.3574569e+00
  2.9439491e-01
  1.8720402e-01
 -1.0418450e-01
  3.5860498e-02
  4.1978102e+00
  2.4940218e-01
  2.4117433e-01
  2.0448299e-02
  3.0142030e-01
 -7.3738521e-01
 -7.4103316e-03
 -1.6080984e-01
 -1.2317328e-01
 -4.8063166e-02
  4.6375059e-02
  1.1794441e+00
 -2.2827301e-03
 -1.5128358e-01
 -2.2383507e-02
 -1.4138861e-01
 -7.4720301e-02
 -8.8590139e-01
 -4.5673680e-01
  8.5131109e-02
  1.6026545e-01
 -3.9320537e-01
 -5.4396558e-01
 -7.2251111e-01
 -5.1137424e-01
  4.3625444e-01
  2.3596892e-01
 -1.5885757e-01
  4.8993748e-02
 -2.0918396e-01
  6.6815108e-02
  5.1531643e-01
  1.0142870e-01
 -7.3887028e-02
  9.9479511e-02
 -1.0520986e-01
 -3.2356706e-02
 -1.2701165e-02
  4.6593860e-01
  4.1411538e+00
 -6.2983975e+00
  3.0310140e+00
  2.1445336e+00
  2.6700864e+00
  2.8241831e-01
 -7.0582229e-01
 -3.4894198e-01
  3.5264120e-02
  1.3869517e+00
  3.9243439e-01
 -5.8397822e-02
 -6.7386217e-02
 -3.2519368e-03
 -1.6772985e-01
  1.1790577e-01
  5.4115999e-02
 -6.2774312e-01
  1.9374780e-02
 -9.8421073e-01
 -3.5974151e-01
 -1.8855594e-01
 -1.4158367e+00
 -3.5964668e-02
 -2.7175927e-01
 -6.4400084e-02
  2.2146671e-01
 -3.8426063e+00
  1.0406461e+00
 -4.3120477e-01
  6.0812980e-01
 -6.1971541e-02
 -5.0860208e-01
  1.8784006e+00
  1.0103291e-01
  9.4757386e-02
 -1.7714795e-01
  1.5208776e+00
 -2.7799491e-02
  2.3582095e-02
 -1.1234215e+00
 -7.9241181e-03
 -1.6594131e+00
 -6.4693075e-01
 -1.5748192e-03
 -5.5782799e-02
 -3.3931595e-01
  1.0828511e-01
 -2.1185733e-01
  2.2251310e-02
  1.4746114e+00
 -1.7974008e-02
 -1.0305121e+00
  3.2715887e-01
 -1.9863485e+00
 -4.0410811e-01
  9.5866764e-01
  6.9453418e-01
 -7.0235497e-01
  3.3035181e+00
 -8.0510390e-01
  6.6291965e-03
  1.0056832e-02
 -1.9915172e-01
 -2.5020340e-01
  1.0967082e-01
  6.4900678e-01
 -1.6215814e+00
  2.7378602e+00
  1.6571099e-01
 -2.7363322e+00
  1.4742878e-01
  8.8999993e-01
 -9.7545758e-03
 -2.0304604e+00
 -1.1463782e+00
  2.1897414e+00
  8.5408562e-01
  1.0990413e+00
 -3.5195730e+00
  6.2897459e-02
 -1.1244816e-01
 -1.8004365e-01
  1.2802154e+00
 -6.4450127e-01
 -2.5845799e+00
  1.0347972e-01
 -2.3436394e-01
  2.3469326e-01
 -9.5312539e-03
  3.0562135e-03
 -7.3789161e-01
  9.1148800e-01
  1.2313098e+00
 -1.5780686e-01
 -2.8894918e+00
  6.7843735e-01
 -6.1152494e-01
 -1.9952716e-01
  2.0961580e-03
  4.1200474e-02
 -1.2226864e-01
 -2.3201445e-01
 -1.5593387e+00
 -4.8498353e-03
  3.5027990e-01
 -3.9639878e-01
  4.6022540e-01
 -1.1379406e+00
 -8.6149734e-01
  1.0081872e+00
 -4.2494914e-01
 -1.6768661e-01
  6.8154782e-01
  6.6076005e-01
 -1.5455003e-01
 -7.8639954e-02
 -5.2668118e+00
 -6.2390476e-01
 -1.4594086e-03
  6.2367924e-02
 -5.4029353e-02
  1.8976925e-02
 -1.4750250e-01
 -4.8953670e-01
 -1.0392873e-02
 -3.3276802e-01
  3.2825835e-02
  2.0564005e+00
 -6.5230781e-01
  1.1435789e-02
  8.4712887e-01
 -5.2993029e-02
  4.9312837e-02
 -3.1097089e-03
 -8.7850414e-02
  2.2863144e-01
 -1.2441121e-01
 -1.2055660e+00
  6.5271065e-02
  1.0882694e-01
 -1.3284956e-01
 -5.2665401e+00
  9.0016596e-02
  1.0964233e-01
 -4.0620288e-01
  7.9934907e-01
 -9.5406532e-01
 -6.0058153e-01
 -4.5120499e-01
  3.2320848e+00
  6.6442795e-02
 -9.6548498e-02
 -1.5413690e-01
 -4.3837401e-01
  1.4037346e+00
 -3.1147826e+00
 -1.5621520e+00
 -3.6725607e-02
  1.9653811e+00
 -3.3061552e-01
 -9.8045903e-01
  5.0581765e-01
  1.2448663e+00
 -1.2231603e+00
 -8.2702225e-01
  7.0852709e-01
  2.8909078e-01
 -1.2623311e+00
 -7.9491204e-01
  3.4077725e+00
 -1.2274365e+00
  2.0143144e-01
 -1.3668623e+00
  4.6353057e-02
  1.1694541e-01
  1.1020768e-01
  1.7607607e-02
  5.6095439e-01
 -1.0258508e-01
 -1.8620299e-01
 -7.5444669e-02
 -3.9896119e-01
  1.4183429e-01
  2.0558365e-01
 -4.1937980e-01
 -1.2441779e-01
  8.2291402e-02
  1.3840994e-01
 -3.5960007e-01
 -8.2951994e+00
 -1.8815322e-01
 -6.9651492e-02
  3.8844752e-01
  5.8085371e-02
  1.6700697e-01
 -5.1126772e-01
 -1.6988506e+00
 -5.7185367e-02
 -1.3455290e-01
 -1.0099392e+00
 -3.2252252e+00
  1.5592276e+00
 -3.2023745e+00
 -1.0115924e-01
  6.6863954e-02
 -1.0305534e-01
 -2.0477676e+00
  3.2875356e-01
 -3.1800609e-02
  2.3047702e-01
  1.1980205e-01
 -4.0089831e-01
  3.2286119e-02
 -2.0809999e-01
  1.8132939e+00
 -4.8004901e-01
 -3.3578888e-01
 -7.0435028e+00
  3.9660104e-02
  5.8080816e-01
 -1.3130507e+00
  6.7136323e-01
 -1.2045898e+00
 -5.0995511e-01
  7.2489376e+00
 -1.2174842e+00
  1.5644555e+00
 -6.1558933e+00
  8.3547336e-01
 -2.6777601e+00
 -3.5089873e-02
  2.3354132e+00
 -5.3308644e+00
 -1.6066978e+00
  9.9132860e-01
  3.6778510e+00
  1.6617383e+00
 -1.2839611e+00
  3.7471706e-01
  3.0442879e-01
 -1.5237986e-01
  5.3734076e-01
  7.6170960e-03
 -3.1131124e+00
  1.2315549e-01
  8.4239952e-02
 -2.2400823e+00
 -3.7790712e-02
 -5.1274949e-01
 -2.5305045e-01
  1.0147390e+00
  2.6762278e+00
 -6.2925383e-02
 -2.6558894e-01
  1.8166318e+00
 -1.6598482e-02
 -8.0678731e-01
 -1.6874658e-01
  6.3043594e-01
  1.4476535e-01
  4.3531859e-01
  4.3619183e-01
 -1.7033359e-02
 -1.8115894e-01
  5.6113791e-01
 -4.7952095e-01
  2.9606273e+00
 -2.9624429e-02
 -9.9792618e-01
  1.6120877e+00
  2.4224546e+00
 -3.3726025e-01
 -2.9243398e+00
  5.5044122e+00
 -2.1434500e+00
 -1.5683303e+00
  1.3406401e+00
  4.1814286e-01
 -2.6896646e+00
  2.2169788e-01
  4.1395006e-01
 -7.0280701e-02
 -8.0187100e-01
 -3.8715732e-01
 -5.0876027e-01
 -7.0128191e-01
  5.3576898e-02
 -3.4505707e-01
  3.9230311e-01
 -4.4437540e-01
  8.4399915e-01
  1.0016379e+00
 -3.4158194e-01
 -9.2240018e-01
 -3.6437854e-01
 -2.6433268e-01
 -4.0881804e-01
  1.6582086e+00
  1.0415293e-01
  1.5887368e+00
  2.1302321e+00
 -2.2523634e+00
 -5.5625349e-01
 -1.3222995e+00
 -6.7773467e-01
 -1.5850005e-01
 -2.9456024e+00
 -6.3994303e-02
  3.3693692e-01
 -8.6636496e-01
 -2.6515586e+00
 -2.4994850e+00
  3.8922706e-01
 -3.3763164e-01
 -1.3941370e-03
  5.2005887e-02
 -3.1622746e-03
 -1.1488756e+00
 -4.2834890e-01
 -8.8132143e-01
  1.4522019e-02
 -3.1220490e-01
 -2.3525655e+00
  5.6708310e-02
  1.0176815e+00
 -2.3320821e-01
 -3.5554600e+00
 -2.2481077e+00
  8.6730532e-02
  1.3114649e-01
  1.5682364e-02
 -5.4434836e-03
 -3.1703584e-02
 -2.1868096e-01
  6.2112067e-02
  1.2060606e-01
 -1.3380602e-01
  1.8545492e-01
  7.5362593e-02
 -1.2150326e-02
  2.0505638e-01
 -7.0002034e-02
 -1.7739367e-01
  4.1173843e-01
 -2.8122711e-01
  2.6318815e+00
  2.4418731e-01
  4.9229896e-01
  1.2549220e-02
  1.7390740e-01
 -3.5335916e-01
 -7.6793456e-01
 -1.2107818e-01
 -4.5906106e-01
  4.9053505e-01
  1.9371087e-02
  8.8956937e-02
 -1.4142989e-01
 -1.6904193e-01
 -1.4070354e-03
 -2.4067409e+00
 -5.5212118e-02
 -9.1514654e-02
  2.0144688e-02
 -2.0706895e-01
 -3.9980333e-02
 -9.7717233e-03
  1.1103641e-01
  3.0439942e+00
 -1.1645685e-02
  3.6408309e-02
 -1.4401309e-01
 -5.0777830e-02
 -1.6738619e-01
  3.8289362e-01
  2.5613053e+00
  4.9215097e-02
  1.4700629e-01
  3.1569397e-01
 -9.3742676e-02
 -2.2160017e-01
 -1.0184368e-01
 -1.2739344e-02
  3.0253740e-02
  1.2240568e-01
  1.5115521e-02
  1.6601114e-01
  1.9059430e+00
  5.8202499e-01
  4.4424206e-01
 -5.6202415e-02
 -2.7012682e-01
  2.2069341e-01
  1.2157775e-01
  1.9729625e-01
 -7.3991396e-02
 -5.8998849e-02
 -1.3500363e-01
  1.9973426e-01
 -5.6973472e-03
  7.1878356e-01
  2.4510922e-02
  1.8180294e-01
 -6.3236654e-01
 -1.9693770e-02
  1.3542591e-01
 -3.8851123e-02
 -8.7561540e-02
 -5.1967014e-02
 -5.6784016e-01
 -2.7252978e-01
 -5.4025583e-02
  6.0167927e-01
 -2.5640510e-02
 -2.2653123e-02
  4.2533848e-02
 -1.8490952e-01
  5.3998303e-02
 -1.1596900e+00
  2.6692268e-01
 -2.5815007e-01
 -5.3280562e-02
  8.1145596e-03
  5.9382194e-01
 -1.2647800e-01
  5.6031591e-01
 -2.0177989e-01
 -1.1018411e+00
 -2.5554238e-02
  5.8355492e-01
 -6.4737606e-01
  4.0576592e-01
 -1.6164004e+00
  4.0546823e-02
  1.0435424e+00
  1.1729845e-01
  7.6804227e-01
 -7.9299104e-01
 -1.6079167e-01
 -4.2255989e-01
  5.2600130e-02
  1.7813504e-01
 -3.0814326e-01
  1.0490257e-01
 -2.1079230e-01
  3.3475802e+00
 -1.1486286e-01
  8.1041336e-02
  3.2086428e-02
  3.6177576e-01
  1.9021471e+00
  3.9361203e-01
  6.6999801e-02
  2.4429998e-01
  1.5171498e-01
  5.7741567e-02
  9.9998685e-03
 -4.4363424e-01
  5.4084951e-01
  7.5478759e-03
  1.9652569e+00
  1.4726299e-01
 -3.9527926e-01
 -1.2195419e-01
 -1.0443930e-01
 -1.7909309e-02
  4.4624910e-02
  3.6493480e-01
  1.5021254e-01
  8.2445636e-02
 -8.1803143e-02
  2.6380596e+00
  2.2401206e-02
  3.3721948e-01
 -7.1914963e-02
  1.1875823e-02
 -2.0828281e-02
 -6.1069131e-01
  2.5995922e-01
 -1.9513676e-01
 -2.2587150e-01
  1.4373071e+00
 -1.9443913e+00
  7.6976545e-02
  3.4942460e-01
 -8.2536966e-02
 -1.2358057e+00
 -1.9797964e+00
  5.9097135e-01
  3.5425481e-01
 -8.7589514e-01
 -4.3097435e-04
  1.2285761e-01
  2.7933365e-01
 -8.0947369e-02
  7.4794374e-02
  3.9489564e-01
  4.3167576e-01
  3.3583000e-02
  3.6883287e-02
  2.9647610e-01
 -2.8878444e-01
 -1.9152892e-01
  1.9718497e-01
 -1.4814270e+00
  2.4683774e-01
  2.8123222e-02
  1.7497794e-01
  4.7921591e-02
  8.6473502e-02
  1.0658681e+00
  1.0883361e+00
  2.6901457e-01
 -2.5195688e-01
  2.5170458e-02
  1.3686147e-01
 -1.2538201e-02
  1.0018640e+00
  3.6601570e-01
  4.9977012e-02
 -1.9201283e+00
 -3.5577360e-01
  1.0010710e-01
  2.1354866e-01
  8.5696034e-02
  6.5192573e-02
 -2.1576123e-02
  2.4059948e-02
 -1.6800624e-01
 -1.8539364e+00
  9.5358253e-02
 -1.1874495e-01
  4.0234014e-01
